{"learner":{"attributes":{"scikit_learn":"{\"_estimator_type\": \"classifier\"}"},"feature_names":[],"feature_types":[],"gradient_booster":{"model":{"gbtree_model_param":{"num_parallel_tree":"1","num_trees":"200"},"iteration_indptr":[0,1,2,3,4,5,6,7,8,9,10,11,12,13,14,15,16,17,18,19,20,21,22,23,24,25,26,27,28,29,30,31,32,33,34,35,36,37,38,39,40,41,42,43,44,45,46,47,48,49,50,51,52,53,54,55,56,57,58,59,60,61,62,63,64,65,66,67,68,69,70,71,72,73,74,75,76,77,78,79,80,81,82,83,84,85,86,87,88,89,90,91,92,93,94,95,96,97,98,99,100,101,102,103,104,105,106,107,108,109,110,111,112,113,114,115,116,117,118,119,120,121,122,123,124,125,126,127,128,129,130,131,132,133,134,135,136,137,138,139,140,141,142,143,144,145,146,147,148,149,150,151,152,153,154,155,156,157,158,159,160,161,162,163,164,165,166,167,168,169,170,171,172,173,174,175,176,177,178,179,180,181,182,183,184,185,186,187,188,189,190,191,192,193,194,195,196,197,198,199,200],"tree_info":[0,0,0,0,0,0,0,0,0,0,0,0,0,0,0,0,0,0,0,0,0,0,0,0,0,0,0,0,0,0,0,0,0,0,0,0,0,0,0,0,0,0,0,0,0,0,0,0,0,0,0,0,0,0,0,0,0,0,0,0,0,0,0,0,0,0,0,0,0,0,0,0,0,0,0,0,0,0,0,0,0,0,0,0,0,0,0,0,0,0,0,0,0,0,0,0,0,0,0,0,0,0,0,0,0,0,0,0,0,0,0,0,0,0,0,0,0,0,0,0,0,0,0,0,0,0,0,0,0,0,0,0,0,0,0,0,0,0,0,0,0,0,0,0,0,0,0,0,0,0,0,0,0,0,0,0,0,0,0,0,0,0,0,0,0,0,0,0,0,0,0,0,0,0,0,0,0,0,0,0,0,0,0,0,0,0,0,0,0,0,0,0,0,0,0,0,0,0,0,0],"trees":[{"base_weights":[-7.462555E-2,7.2316307E-1,-1.0536592E0,3.6713798E-2,1.2504109E0,-1.1708416E0,-5.190191E-1,7.8697467E-1,-3.6521533E-1,2.0414631E0,6.6365826E-1,-8.7528116E-1,-1.2596424E0,-9.100243E-2,-9.3337315E-1,2.3568034E-1,1.4000363E0,-8.5277444E-1,-1.5026005E-1,2.1603532E0,1.0771413E0,-1.0005169E0,7.519917E-1,-9.7797894E-1,-2.4180375E-1,-9.412142E-3,-1.2666285E0,2.4572234E-1,-4.7945017E-1,-6.5543413E-1,-6.502764E-2,-2.0186831E-1,7.431613E-1,1.7293078E0,6.954139E-1,1.4773463E-2,-8.8708335E-1,1.4852674E-1,-6.4380825E-1,1.695659E0,2.3797908E0,5.541438E-1,1.0713992E-1,-5.843869E-2,-4.0118292E-1,8.833071E-1,-2.084868E-2,-7.113207E-1,-1.190198E0,6.34596E-2,-5.0383877E-2,-9.188601E-1,-6.4049415E-2,8.375057E-1,-1.5777232E-2,-1.1578787E-1,-8.7325776E-1,-1.0162622E0,-2.7775124E-1,8.855788E-3,-4.3662887E-2,-4.136066E-3,5.0458428E-2,3.2316234E-2,9.1649435E-2,6.9456354E-2,2.792667E-3,-3.6001667E-2,-5.7899106E-2,-1.7138774E-2,1.8687334E-2,-4.8447624E-3,-4.934835E-2,1.21801734E-1,5.2794583E-2,1.21848695E-1,8.32412E-3,9.815001E-4,7.0105694E-2,1.4773463E-2,-4.0754225E-2,2.250352E-2,5.6769546E-2,-3.3583544E-2,1.737071E-2,-4.753498E-2,7.1740546E-3,-2.3487538E-2,-6.424774E-2,-2.9248154E-2,3.5011556E-2,-6.0944047E-2,-2.0070596E-2,1.9974137E-2,7.485995E-2,-1.5206123E-2,4.134493E-2,-4.132067E-2,1.5712392E-2,1.4773463E-2,-5.3549178E-2,-1.0094715E-2,-5.3715E-2,-3.5557065E-2,6.7091207E-3],"categories":[],"categories_nodes":[],"categories_segments":[],"categories_sizes":[],"default_left":[0,0,0,0,0,0,0,0,0,0,0,0,0,0,0,0,0,0,0,0,0,0,0,0,0,0,0,0,0,0,0,0,0,0,0,0,0,0,0,0,0,0,0,0,0,0,0,0,0,0,0,0,0,0,0,0,0,0,0,0,0,0,0,0,0,0,0,0,0,0,0,0,0,0,0,0,0,0,0,0,0,0,0,0,0,0,0,0,0,0,0,0,0,0,0,0,0,0,0,0,0,0,0,0,0],"id":0,"left_children":[1,3,5,7,9,11,13,15,17,19,21,23,25,27,29,31,33,35,37,39,41,43,45,47,49,-1,51,53,55,57,-1,59,61,63,65,-1,67,69,71,73,75,77,-1,-1,79,81,83,85,87,89,-1,91,-1,93,95,97,99,101,103,-1,-1,-1,-1,-1,-1,-1,-1,-1,-1,-1,-1,-1,-1,-1,-1,-1,-1,-1,-1,-1,-1,-1,-1,-1,-1,-1,-1,-1,-1,-1,-1,-1,-1,-1,-1,-1,-1,-1,-1,-1,-1,-1,-1,-1,-1],"loss_changes":[7.081625E2,1.8078494E2,2.4894745E1,6.604898E1,1.2979303E2,7.639557E0,1.3212093E1,2.5488445E1,1.4825882E1,1.1413208E1,2.4817665E1,4.9831085E0,1.6616211E0,5.086644E0,3.0243874E0,9.348137E0,7.1421432E0,1.9736271E0,1.4877742E1,6.74292E0,7.2553425E0,4.0647602E-1,1.5852882E1,3.0417023E0,2.991239E0,0E0,8.157349E-2,3.2645206E0,2.473586E0,2.9390135E0,0E0,6.0148416E0,4.3439302E0,1.4921188E0,5.746588E0,0E0,1.0865402E0,7.127129E0,7.033882E0,1.51343155E1,8.367249E0,5.189519E0,0E0,0E0,1.2285436E0,1.4056648E1,5.8986287E0,6.87562E0,1.9069443E0,4.494522E0,0E0,1.6114216E0,0E0,1.267787E0,4.0304885E0,3.468334E0,2.2757063E0,3.3668137E-1,2.4029143E0,0E0,0E0,0E0,0E0,0E0,0E0,0E0,0E0,0E0,0E0,0E0,0E0,0E0,0E0,0E0,0E0,0E0,0E0,0E0,0E0,0E0,0E0,0E0,0E0,0E0,0E0,0E0,0E0,0E0,0E0,0E0,0E0,0E0,0E0,0E0,0E0,0E0,0E0,0E0,0E0,0E0,0E0,0E0,0E0,0E0,0E0],"parents":[2147483647,0,0,1,1,2,2,3,3,4,4,5,5,6,6,7,7,8,8,9,9,10,10,11,11,12,12,13,13,14,14,15,15,16,16,17,17,18,18,19,19,20,20,21,21,22,22,23,23,24,24,26,26,27,27,28,28,29,29,31,31,32,32,33,33,34,34,36,36,37,37,38,38,39,39,40,40,41,41,44,44,45,45,46,46,47,47,48,48,49,49,51,51,53,53,54,54,55,55,56,56,57,57,58,58],"right_children":[2,4,6,8,10,12,14,16,18,20,22,24,26,28,30,32,34,36,38,40,42,44,46,48,50,-1,52,54,56,58,-1,60,62,64,66,-1,68,70,72,74,76,78,-1,-1,80,82,84,86,88,90,-1,92,-1,94,96,98,100,102,104,-1,-1,-1,-1,-1,-1,-1,-1,-1,-1,-1,-1,-1,-1,-1,-1,-1,-1,-1,-1,-1,-1,-1,-1,-1,-1,-1,-1,-1,-1,-1,-1,-1,-1,-1,-1,-1,-1,-1,-1,-1,-1,-1,-1,-1,-1],"split_conditions":[3.708072E-1,1.5330921E-1,1.1604294E0,-1.1595066E0,-7.9315495E-1,2.4205412E-1,1.5693889E0,8.3149505E-1,-1.3017887E0,2.4205412E-1,1.7417893E-1,1.3362778E0,-1.6910719E0,1.0160094E0,1.3910902E0,-1.1707137E0,2.30748E-1,-1.6555808E0,-3.8609758E-1,3.5738793E-1,9.447364E-1,4.7021192E-1,9.5719165E-1,-7.489673E-2,1.5693889E0,-9.412142E-3,-1.4908377E0,-9.0345156E-1,2.4205412E-1,9.9433625E-1,-6.502764E-2,-2.1345106E-1,-9.001291E-1,-1.2270682E0,9.9433625E-1,1.4773463E-2,-5.8962625E-1,4.0093315E-1,3.318852E-1,-1.240918E0,1.6772941E0,5.6784306E-2,1.0713992E-1,-5.843869E-2,5.1666886E-1,4.0093315E-1,7.456763E-1,8.451858E-1,-3.4610292E-1,2.8054994E-3,-5.0383877E-2,-1.5692545E0,-6.4049415E-2,-1.0563396E0,1.1314397E0,-8.117187E-1,-1.475549E0,4.0180823E-1,1.3578714E0,8.855788E-3,-4.3662887E-2,-4.136066E-3,5.0458428E-2,3.2316234E-2,9.1649435E-2,6.9456354E-2,2.792667E-3,-3.6001667E-2,-5.7899106E-2,-1.7138774E-2,1.8687334E-2,-4.8447624E-3,-4.934835E-2,1.21801734E-1,5.2794583E-2,1.21848695E-1,8.32412E-3,9.815001E-4,7.0105694E-2,1.4773463E-2,-4.0754225E-2,2.250352E-2,5.6769546E-2,-3.3583544E-2,1.737071E-2,-4.753498E-2,7.1740546E-3,-2.3487538E-2,-6.424774E-2,-2.9248154E-2,3.5011556E-2,-6.0944047E-2,-2.0070596E-2,1.9974137E-2,7.485995E-2,-1.5206123E-2,4.134493E-2,-4.132067E-2,1.5712392E-2,1.4773463E-2,-5.3549178E-2,-1.0094715E-2,-5.3715E-2,-3.5557065E-2,6.7091207E-3],"split_indices":[15,18,18,5,5,9,15,16,18,9,8,17,0,19,19,18,12,19,5,18,18,18,5,0,15,0,0,0,9,1,0,19,19,19,1,0,5,17,6,5,19,0,0,0,18,17,19,18,18,14,0,0,0,0,0,0,0,19,18,0,0,0,0,0,0,0,0,0,0,0,0,0,0,0,0,0,0,0,0,0,0,0,0,0,0,0,0,0,0,0,0,0,0,0,0,0,0,0,0,0,0,0,0,0,0],"split_type":[0,0,0,0,0,0,0,0,0,0,0,0,0,0,0,0,0,0,0,0,0,0,0,0,0,0,0,0,0,0,0,0,0,0,0,0,0,0,0,0,0,0,0,0,0,0,0,0,0,0,0,0,0,0,0,0,0,0,0,0,0,0,0,0,0,0,0,0,0,0,0,0,0,0,0,0,0,0,0,0,0,0,0,0,0,0,0,0,0,0,0,0,0,0,0,0,0,0,0,0,0,0,0,0,0],"sum_hessian":[9.046907E2,4.986309E2,4.0605978E2,2.1707726E2,2.8155365E2,3.3208374E2,7.397605E1,7.539089E1,1.4168637E2,1.1884676E2,1.6270688E2,7.923118E1,2.5285255E2,3.6988026E1,3.6988026E1,4.042407E1,3.496682E1,4.2445274E1,9.924109E1,1.0469834E2,1.4148424E1,7.6805735E0,1.550263E2,6.771032E1,1.152086E1,1.8190831E0,2.5103348E2,2.0009914E1,1.697811E1,2.263748E1,1.4350545E1,2.2031118E1,1.8392952E1,2.28396E1,1.2127221E1,1.0106018E0,4.1434673E1,6.2253067E1,3.6988026E1,3.6381664E1,6.831668E1,1.0510258E1,3.6381662E0,5.255129E0,2.4254441E0,1.3238882E2,2.263748E1,3.1935015E1,3.5775303E1,8.893295E0,2.6275644E0,1.2531462E1,2.3850201E2,5.4572496E0,1.4552665E1,9.499657E0,7.4784527E0,1.07123785E1,1.19251E1,1.4552665E1,7.4784527E0,4.648768E0,1.3744184E1,2.6275644E0,2.0212034E1,5.255129E0,6.872092E0,2.7892609E1,1.3542064E1,1.9403553E1,4.2849514E1,1.4754786E1,2.2233238E1,1.5563267E1,2.0818396E1,6.64976E1,1.8190831E0,7.074212E0,3.436046E0,1.0106018E0,1.4148425E0,4.9721607E1,8.266722E1,7.882694E0,1.4754786E1,2.4860804E1,7.074212E0,4.8508883E0,3.0924414E1,4.4466476E0,4.4466476E0,7.074212E0,5.4572496E0,4.2445273E0,1.2127221E0,1.131874E1,3.2339256E0,3.2339256E0,6.265731E0,1.0106018E0,6.467851E0,1.0106018E0,9.7017765E0,5.4572496E0,6.467851E0],"tree_param":{"num_deleted":"0","num_feature":"20","num_nodes":"105","size_leaf_vector":"1"}},{"base_weights":[-9.044432E-2,6.652485E-1,-1.0352883E0,1.0427417E0,-1.6388659E-1,-1.1743038E0,-6.2165445E-1,1.611185E0,5.222182E-1,-4.1904795E-1,3.751385E-1,-9.003803E-1,-1.2404618E0,-3.2278553E-1,-9.2988557E-1,8.6150074E-1,2.0778475E0,-3.8144368E-1,8.2338595E-1,5.6402373E-1,-7.0892304E-1,8.8619083E-1,-2.3158935E-1,-2.924048E-1,-1.0305609E0,-7.800128E-1,-6.335905E-2,-7.457695E-2,-5.6343675E-1,-7.5941926E-1,-6.381228E-2,1.0858089E0,-1.2994403E-1,2.4142787E0,1.7864194E0,1.3710999E-2,-7.0081985E-1,1.123548E0,4.3321335E-1,9.452813E-1,-4.6110958E-2,-9.972136E-1,-3.0701563E-1,5.281197E-2,1.6050613E0,-9.0984315E-1,3.6725473E-2,2.541698E-1,-8.4540594E-1,-1.1859792E0,-6.623671E-1,-5.9508443E-2,-1.07198E0,-5.4130846E-1,2.7788594E-1,-9.4769657E-1,-2.2180255E-1,-1.0388947E0,-3.0514055E-1,3.2343578E-2,6.838669E-2,1.9712744E-2,-2.7655218E-2,3.6866535E-2,1.2574945E-1,6.590058E-2,1.1053195E-1,-1.3049291E-2,4.3702397E-2,-5.7062897E-4,-4.519186E-2,2.9828588E-2,6.889311E-2,2.877682E-3,4.4251498E-2,-1.5619205E-2,6.3926026E-2,2.352232E-2,-3.0416513E-2,-1.5751041E-2,-5.3423584E-2,-2.6116094E-2,3.454963E-2,5.24593E-2,-1.7223421E-2,9.829463E-2,3.8265016E-2,-5.8106977E-2,1.35528175E-2,5.7381738E-2,-1.3096337E-2,-1.8597564E-2,7.2145306E-2,8.545871E-3,-5.5561524E-2,-4.1634005E-2,-6.385397E-2,-4.1862108E-2,2.7279535E-2,-4.5787033E-2,3.3353355E-2,-6.114638E-2,-1.2843425E-2,2.092184E-2,-3.528745E-2,3.7970807E-2,-1.6467636E-2,-9.7990325E-3,-4.9811315E-2,-3.6593597E-2,1.49034085E-2,-2.669358E-2,-5.84983E-2,1.902886E-2,-2.3885578E-2],"categories":[],"categories_nodes":[],"categories_segments":[],"categories_sizes":[],"default_left":[0,0,0,0,0,0,0,0,0,0,0,0,0,0,0,0,0,0,0,0,0,0,0,0,0,0,0,0,0,0,0,0,0,0,0,0,0,0,0,0,0,0,0,0,0,0,0,0,0,0,0,0,0,0,0,0,0,0,0,0,0,0,0,0,0,0,0,0,0,0,0,0,0,0,0,0,0,0,0,0,0,0,0,0,0,0,0,0,0,0,0,0,0,0,0,0,0,0,0,0,0,0,0,0,0,0,0,0,0,0,0,0,0,0,0],"id":1,"left_children":[1,3,5,7,9,11,13,15,17,19,21,23,25,27,29,31,33,35,37,39,41,43,45,47,49,51,-1,53,55,57,-1,59,61,63,65,67,69,71,73,75,77,79,81,83,85,87,89,91,93,95,97,99,101,103,105,107,109,111,113,-1,-1,-1,-1,-1,-1,-1,-1,-1,-1,-1,-1,-1,-1,-1,-1,-1,-1,-1,-1,-1,-1,-1,-1,-1,-1,-1,-1,-1,-1,-1,-1,-1,-1,-1,-1,-1,-1,-1,-1,-1,-1,-1,-1,-1,-1,-1,-1,-1,-1,-1,-1,-1,-1,-1,-1],"loss_changes":[6.4647595E2,1.5764835E2,2.2403687E1,1.0149585E2,2.192534E1,4.31958E0,9.218182E0,5.5880157E1,4.9851994E1,3.1145626E1,1.6135841E1,4.606247E0,1.9517517E0,3.1829357E0,2.0026512E0,1.4585659E1,5.57901E0,5.8380227E0,1.5539154E1,5.8883734E0,9.399475E0,1.6746555E1,4.4525256E0,3.9421558E0,2.114273E0,3.2406797E0,0E0,4.7122536E0,3.3684053E0,4.279129E0,0E0,5.6831474E0,3.0744002E0,5.574005E0,8.59285E0,5.3383904E0,3.5670404E0,9.458893E0,1.032394E1,6.899641E0,3.3693168E0,2.012951E0,8.189604E0,5.9210343E0,3.0557213E0,2.3773232E0,6.3922467E0,5.7248907E0,1.9084058E0,4.27742E-2,4.1125994E0,4.087633E0,1.0540333E0,2.231847E0,5.0631166E0,2.6164627E-1,4.390863E0,8.3146286E-1,1.9810263E0,0E0,0E0,0E0,0E0,0E0,0E0,0E0,0E0,0E0,0E0,0E0,0E0,0E0,0E0,0E0,0E0,0E0,0E0,0E0,0E0,0E0,0E0,0E0,0E0,0E0,0E0,0E0,0E0,0E0,0E0,0E0,0E0,0E0,0E0,0E0,0E0,0E0,0E0,0E0,0E0,0E0,0E0,0E0,0E0,0E0,0E0,0E0,0E0,0E0,0E0,0E0,0E0,0E0,0E0,0E0,0E0],"parents":[2147483647,0,0,1,1,2,2,3,3,4,4,5,5,6,6,7,7,8,8,9,9,10,10,11,11,12,12,13,13,14,14,15,15,16,16,17,17,18,18,19,19,20,20,21,21,22,22,23,23,24,24,25,25,27,27,28,28,29,29,31,31,32,32,33,33,34,34,35,35,36,36,37,37,38,38,39,39,40,40,41,41,42,42,43,43,44,44,45,45,46,46,47,47,48,48,49,49,50,50,51,51,52,52,53,53,54,54,55,55,56,56,57,57,58,58],"right_children":[2,4,6,8,10,12,14,16,18,20,22,24,26,28,30,32,34,36,38,40,42,44,46,48,50,52,-1,54,56,58,-1,60,62,64,66,68,70,72,74,76,78,80,82,84,86,88,90,92,94,96,98,100,102,104,106,108,110,112,114,-1,-1,-1,-1,-1,-1,-1,-1,-1,-1,-1,-1,-1,-1,-1,-1,-1,-1,-1,-1,-1,-1,-1,-1,-1,-1,-1,-1,-1,-1,-1,-1,-1,-1,-1,-1,-1,-1,-1,-1,-1,-1,-1,-1,-1,-1,-1,-1,-1,-1,-1,-1,-1,-1,-1,-1],"split_conditions":[3.708072E-1,2.4205412E-1,9.447364E-1,-8.745664E-1,1.8483357E-1,2.4205412E-1,1.5693889E0,1.7417893E-1,1.7417893E-1,-1.240918E0,-1.01157434E-1,-2.639804E-1,-1.4908377E0,-6.2073857E-2,1.3910902E0,-3.145786E-1,-1.2002122E0,-4.2680332E-1,-3.2454687E-1,2.3630452E-1,-1.1524627E0,6.21197E-1,2.2448844E-1,-1.4936803E-1,4.0093315E-1,1.5693889E0,-6.335905E-2,-1.1110835E0,1.2732534E0,1.3578714E0,-6.381228E-2,8.3149505E-1,9.9433625E-1,-1.3286415E0,5.5253208E-2,1.053516E0,-8.438559E-1,4.0093315E-1,1.0177402E0,-1.4975715E0,-1.4826388E0,-1.3746669E0,9.1496515E-1,3.3250028E-1,9.338647E-2,1.1171372E0,6.875641E-1,2.8054994E-3,-5.3441155E-1,-4.8008105E-1,6.709723E-1,9.9433625E-1,-1.5431156E0,1.4307697E-1,2.4205412E-1,-4.943648E-1,6.24443E-1,-8.7533987E-1,9.338647E-2,3.2343578E-2,6.838669E-2,1.9712744E-2,-2.7655218E-2,3.6866535E-2,1.2574945E-1,6.590058E-2,1.1053195E-1,-1.3049291E-2,4.3702397E-2,-5.7062897E-4,-4.519186E-2,2.9828588E-2,6.889311E-2,2.877682E-3,4.4251498E-2,-1.5619205E-2,6.3926026E-2,2.352232E-2,-3.0416513E-2,-1.5751041E-2,-5.3423584E-2,-2.6116094E-2,3.454963E-2,5.24593E-2,-1.7223421E-2,9.829463E-2,3.8265016E-2,-5.8106977E-2,1.35528175E-2,5.7381738E-2,-1.3096337E-2,-1.8597564E-2,7.2145306E-2,8.545871E-3,-5.5561524E-2,-4.1634005E-2,-6.385397E-2,-4.1862108E-2,2.7279535E-2,-4.5787033E-2,3.3353355E-2,-6.114638E-2,-1.2843425E-2,2.092184E-2,-3.528745E-2,3.7970807E-2,-1.6467636E-2,-9.7990325E-3,-4.9811315E-2,-3.6593597E-2,1.49034085E-2,-2.669358E-2,-5.84983E-2,1.902886E-2,-2.3885578E-2],"split_indices":[15,9,18,5,18,9,15,8,8,5,5,5,0,0,19,18,5,5,19,0,18,18,5,0,17,15,0,0,18,18,0,16,1,19,7,0,18,17,18,18,18,19,19,18,10,0,18,14,17,19,18,1,0,5,9,19,0,0,10,0,0,0,0,0,0,0,0,0,0,0,0,0,0,0,0,0,0,0,0,0,0,0,0,0,0,0,0,0,0,0,0,0,0,0,0,0,0,0,0,0,0,0,0,0,0,0,0,0,0,0,0,0,0,0,0],"split_type":[0,0,0,0,0,0,0,0,0,0,0,0,0,0,0,0,0,0,0,0,0,0,0,0,0,0,0,0,0,0,0,0,0,0,0,0,0,0,0,0,0,0,0,0,0,0,0,0,0,0,0,0,0,0,0,0,0,0,0,0,0,0,0,0,0,0,0,0,0,0,0,0,0,0,0,0,0,0,0,0,0,0,0,0,0,0,0,0,0,0,0,0,0,0,0,0,0,0,0,0,0,0,0,0,0,0,0,0,0,0,0,0,0,0,0],"sum_hessian":[9.034489E2,5.021343E2,4.013146E2,3.4486475E2,1.5726955E2,2.9899E2,1.02324615E2,1.6384296E2,1.8102179E2,1.0689204E2,5.037751E1,6.100637E1,2.3798363E2,5.299068E1,4.9333935E1,6.3951782E1,9.989118E1,4.5182858E1,1.3583894E2,2.4126059E1,8.276598E1,2.709475E1,2.328276E1,1.1331517E1,4.9674854E1,1.4708375E1,2.2327525E2,2.6730568E1,2.6260115E1,3.5201538E1,1.4132394E1,5.2074974E1,1.187681E1,4.298455E1,5.6906628E1,2.0623314E1,2.4559546E1,7.571293E1,6.012601E1,1.4509896E1,9.616162E0,4.733273E1,3.543325E1,1.3045133E1,1.4049618E1,5.922002E0,1.7360758E1,5.9706426E0,5.360875E0,3.336857E1,1.6306284E1,4.588612E0,1.0119763E1,1.1270449E1,1.5460119E1,1.152412E1,1.4735993E1,2.0997078E1,1.4204461E1,2.1654665E1,3.042031E1,5.3355684E0,6.5412416E0,2.9066486E0,4.00779E1,2.8996576E1,2.7910053E1,1.616018E1,4.463134E0,5.82732E0,1.8732225E1,2.5734041E1,4.9978886E1,3.344543E1,2.668058E1,3.0524278E0,1.1457468E1,5.0966663E0,4.5194955E0,4.9891977E0,4.2343533E1,2.953757E1,5.895681E0,3.2509277E0,9.794205E0,8.889104E0,5.1605134E0,4.8925967E0,1.0294055E0,3.0760252E0,1.4284733E1,4.3608413E0,1.6098013E0,1.1854792E0,4.175396E0,8.919149E0,2.4449419E1,1.4512252E1,1.7940319E0,1.9868541E0,2.6017578E0,8.116398E0,2.0033653E0,1.4226505E0,9.847798E0,8.482797E0,6.9773226E0,1.004408E0,1.0519712E1,7.232276E0,7.503718E0,5.371934E0,1.5625145E1,2.6136565E0,1.1590804E1],"tree_param":{"num_deleted":"0","num_feature":"20","num_nodes":"115","size_leaf_vector":"1"}},{"base_weights":[-7.072451E-2,6.53722E-1,-1.026645E0,1.0078719E0,-1.378821E-1,-1.1555718E0,-6.431843E-1,1.6174527E0,5.9122866E-1,-2.865643E-1,6.20057E-1,-8.5590243E-1,-1.2314719E0,-4.3495953E-1,-1.1389003E0,9.680589E-1,2.0309427E0,-2.7118102E-1,9.0474117E-1,4.8458874E-1,-4.7098947E-1,1.8971938E0,-2.423201E-1,-1.046474E0,-5.5243E-1,-8.0803615E-1,-6.275969E-2,-7.270371E-1,-2.3942484E-1,-1.3619328E-2,-1.1652626E0,1.1601609E0,1.982649E-2,1.728918E0,2.4874823E0,2.4486381E-1,-6.069933E-1,1.3460174E-1,1.0851047E0,8.0254006E-1,-1.4061923E-1,-8.4426826E-1,-1.8491594E-1,2.785027E-2,1.0435375E-1,7.201456E-1,-4.2265815E-1,3.0715133E-3,-1.0903546E0,-7.237415E-1,9.354934E-2,1.0458354E-2,-9.591436E-1,-3.6576954E-1,-1.0541941E0,5.2615765E-2,-8.221359E-1,-1.1924919E0,-2.0929677E-2,6.259288E-2,-4.424515E-2,-2.093131E-2,3.924955E-2,5.9900213E-2,1.0248337E-1,1.2660632E-1,3.199565E-2,2.2233013E-2,-2.7137313E-2,-1.3245329E-2,-5.6449022E-2,3.2342386E-2,-1.056825E-2,2.7860684E-2,6.6592716E-2,8.784742E-3,7.880606E-2,-2.9736532E-2,3.181225E-2,2.449842E-2,-4.4720568E-2,2.1490147E-2,-2.1243272E-2,-1.0241361E-2,6.4393096E-2,1.6038148E-3,-3.2468442E-2,-3.72722E-2,-5.9196807E-2,-5.237164E-2,-1.7661512E-2,-3.1681556E-2,3.1302545E-2,-5.2775986E-2,-1.7804118E-2,8.635665E-4,-4.2858753E-2,8.727697E-3,-5.8810066E-2,1.2115279E-2,-2.204494E-2,1.3217956E-3,-5.092455E-2,-6.451337E-2,-3.5290543E-2],"categories":[],"categories_nodes":[],"categories_segments":[],"categories_sizes":[],"default_left":[0,0,0,0,0,0,0,0,0,0,0,0,0,0,0,0,0,0,0,0,0,0,0,0,0,0,0,0,0,0,0,0,0,0,0,0,0,0,0,0,0,0,0,0,0,0,0,0,0,0,0,0,0,0,0,0,0,0,0,0,0,0,0,0,0,0,0,0,0,0,0,0,0,0,0,0,0,0,0,0,0,0,0,0,0,0,0,0,0,0,0,0,0,0,0,0,0,0,0,0,0,0,0,0,0],"id":2,"left_children":[1,3,5,7,9,11,13,15,17,19,21,23,25,27,29,31,33,35,37,39,41,43,45,47,49,51,-1,53,55,-1,57,59,61,63,65,67,69,71,73,75,77,79,81,-1,-1,83,85,-1,87,89,91,-1,93,95,97,99,101,103,-1,-1,-1,-1,-1,-1,-1,-1,-1,-1,-1,-1,-1,-1,-1,-1,-1,-1,-1,-1,-1,-1,-1,-1,-1,-1,-1,-1,-1,-1,-1,-1,-1,-1,-1,-1,-1,-1,-1,-1,-1,-1,-1,-1,-1,-1,-1],"loss_changes":[6.301144E2,1.45268E2,1.8648865E1,8.9913025E1,1.830899E1,5.5942383E0,9.925022E0,3.688394E1,5.813333E1,1.945506E1,2.9868374E1,3.0277977E0,1.305542E0,3.9784403E0,3.5062408E-1,1.0577892E1,7.7625732E0,1.0173869E1,2.1696823E1,5.397469E0,1.1548201E1,1.6051712E0,3.2248158E0,1.8745537E0,2.9636579E0,2.5152636E0,0E0,3.0024357E0,7.7085347E0,0E0,7.16362E-2,1.0179352E1,3.9590085E0,7.06929E0,1.0648041E0,3.9421856E0,6.0101357E0,5.6271434E0,1.5835632E1,8.34081E0,3.840212E0,3.6010208E0,9.524138E0,0E0,0E0,1.8522875E0,1.5466895E0,0E0,2.7354813E-1,2.1243649E0,2.8636105E0,0E0,3.965807E-1,2.8672116E0,2.380846E0,3.0037646E0,2.5425978E0,3.5255432E-1,0E0,0E0,0E0,0E0,0E0,0E0,0E0,0E0,0E0,0E0,0E0,0E0,0E0,0E0,0E0,0E0,0E0,0E0,0E0,0E0,0E0,0E0,0E0,0E0,0E0,0E0,0E0,0E0,0E0,0E0,0E0,0E0,0E0,0E0,0E0,0E0,0E0,0E0,0E0,0E0,0E0,0E0,0E0,0E0,0E0,0E0,0E0],"parents":[2147483647,0,0,1,1,2,2,3,3,4,4,5,5,6,6,7,7,8,8,9,9,10,10,11,11,12,12,13,13,14,14,15,15,16,16,17,17,18,18,19,19,20,20,21,21,22,22,23,23,24,24,25,25,27,27,28,28,30,30,31,31,32,32,33,33,34,34,35,35,36,36,37,37,38,38,39,39,40,40,41,41,42,42,45,45,46,46,48,48,49,49,50,50,52,52,53,53,54,54,55,55,56,56,57,57],"right_children":[2,4,6,8,10,12,14,16,18,20,22,24,26,28,30,32,34,36,38,40,42,44,46,48,50,52,-1,54,56,-1,58,60,62,64,66,68,70,72,74,76,78,80,82,-1,-1,84,86,-1,88,90,92,-1,94,96,98,100,102,104,-1,-1,-1,-1,-1,-1,-1,-1,-1,-1,-1,-1,-1,-1,-1,-1,-1,-1,-1,-1,-1,-1,-1,-1,-1,-1,-1,-1,-1,-1,-1,-1,-1,-1,-1,-1,-1,-1,-1,-1,-1,-1,-1,-1,-1,-1,-1],"split_conditions":[3.708072E-1,2.4205412E-1,9.447364E-1,-9.966836E-1,8.684143E-1,2.4205412E-1,1.5677776E0,1.7417893E-1,1.7417893E-1,-1.240918E0,-1.01157434E-1,4.0093315E-1,-1.4908377E0,1.2085454E0,1.0276953E0,-3.145786E-1,5.5253208E-2,3.318852E-1,8.3149505E-1,7.225873E-1,-1.1524627E0,8.3149505E-1,9.6630573E-1,-1.4762403E0,5.3326064E-1,2.30748E-1,-6.275969E-2,-7.489673E-2,1.5347862E0,-1.3619328E-2,1.5471534E0,-1.0373893E0,1.8915908E-2,1.8331976E-1,1.2267964E0,1.5347862E0,9.338647E-2,-3.930026E-1,4.0093315E-1,-4.201279E-1,8.3149505E-1,-1.6378076E0,-9.152721E-1,2.785027E-2,1.0435375E-1,-4.4626683E-1,3.3144754E-1,3.0715133E-3,-4.8008105E-1,9.9433625E-1,1.5347862E0,1.0458354E-2,1.1318187E0,2.4205412E-1,-4.943648E-1,1.495583E0,6.1183226E-1,4.0093315E-1,-2.0929677E-2,6.259288E-2,-4.424515E-2,-2.093131E-2,3.924955E-2,5.9900213E-2,1.0248337E-1,1.2660632E-1,3.199565E-2,2.2233013E-2,-2.7137313E-2,-1.3245329E-2,-5.6449022E-2,3.2342386E-2,-1.056825E-2,2.7860684E-2,6.6592716E-2,8.784742E-3,7.880606E-2,-2.9736532E-2,3.181225E-2,2.449842E-2,-4.4720568E-2,2.1490147E-2,-2.1243272E-2,-1.0241361E-2,6.4393096E-2,1.6038148E-3,-3.2468442E-2,-3.72722E-2,-5.9196807E-2,-5.237164E-2,-1.7661512E-2,-3.1681556E-2,3.1302545E-2,-5.2775986E-2,-1.7804118E-2,8.635665E-4,-4.2858753E-2,8.727697E-3,-5.8810066E-2,1.2115279E-2,-2.204494E-2,1.3217956E-3,-5.092455E-2,-6.451337E-2,-3.5290543E-2],"split_indices":[15,9,18,5,18,9,5,8,8,5,5,17,0,18,18,18,7,6,16,0,18,16,18,19,18,12,0,0,4,0,19,5,18,19,18,4,10,0,17,0,16,0,5,0,0,0,19,0,19,1,4,0,14,9,19,18,19,17,0,0,0,0,0,0,0,0,0,0,0,0,0,0,0,0,0,0,0,0,0,0,0,0,0,0,0,0,0,0,0,0,0,0,0,0,0,0,0,0,0,0,0,0,0,0,0],"split_type":[0,0,0,0,0,0,0,0,0,0,0,0,0,0,0,0,0,0,0,0,0,0,0,0,0,0,0,0,0,0,0,0,0,0,0,0,0,0,0,0,0,0,0,0,0,0,0,0,0,0,0,0,0,0,0,0,0,0,0,0,0,0,0,0,0,0,0,0,0,0,0,0,0,0,0,0,0,0,0,0,0,0,0,0,0,0,0,0,0,0,0,0,0,0,0,0,0,0,0,0,0,0,0,0,0],"sum_hessian":[9.07926E2,5.166772E2,3.9124884E2,3.5678467E2,1.5989249E2,2.9129593E2,9.9952934E1,1.4368315E2,2.1310152E2,1.3419069E2,2.5701794E1,6.1350014E1,2.299459E2,7.1709076E1,2.8243858E1,5.719636E1,8.648679E1,5.6850975E1,1.5625053E2,2.5584486E1,1.0860621E2,9.875992E0,1.5825801E1,3.6181065E1,2.5168947E1,1.4058798E1,2.158871E2,2.7665651E1,4.4043423E1,1.1684968E0,2.7075361E1,4.7375153E1,9.82121E0,5.4932846E1,3.1553946E1,2.25181E1,3.4332874E1,2.998082E1,1.2626972E2,1.67716E1,8.812884E0,4.627445E1,6.233176E1,1.7137474E0,8.162245E0,2.0250077E0,1.3800794E1,1.3631825E0,3.4817883E1,1.9798164E1,5.3707843E0,1.7686474E0,1.2290151E1,1.4153967E1,1.3511684E1,2.9945282E1,1.409814E1,2.5546652E1,1.5287101E0,4.571332E1,1.661832E0,6.5314617E0,3.2897484E0,2.2471838E1,3.246101E1,3.0447702E1,1.106243E0,1.8309008E1,4.2090945E0,2.1651173E1,1.2681703E1,1.1735419E1,1.82454E1,4.1259094E1,8.501062E1,9.942307E0,6.8292937E0,5.709738E0,3.103146E0,1.3583822E0,4.4916065E1,1.7277603E1,4.5054157E1,1.0132846E0,1.0117233E0,4.8770194E0,8.923774E0,9.344156E0,2.5473726E1,9.59161E0,1.0206554E1,2.1900935E0,3.1806905E0,9.94979E0,2.34036E0,8.496201E0,5.6577663E0,1.1815438E0,1.233014E1,2.1998749E1,7.9465327E0,2.8118343E0,1.1286306E1,1.9897945E1,5.648706E0],"tree_param":{"num_deleted":"0","num_feature":"20","num_nodes":"105","size_leaf_vector":"1"}},{"base_weights":[-6.584171E-2,5.960403E-1,-9.73714E-1,9.2546165E-1,-1.5612957E-1,-1.0842673E0,-5.3139454E-1,1.3737243E0,4.9137545E-1,-3.0592412E-1,5.801187E-1,-9.0531486E-1,-6.142794E-2,-2.819508E-1,-1.0462276E0,7.4937844E-1,1.7445263E0,-2.6953924E-1,7.44171E-1,3.3117673E-1,-4.6215075E-1,1.937273E0,-3.3004186E-1,-1.06579E0,-5.518924E-1,-1.0206299E-1,-5.882197E-1,-3.724318E-1,-1.1024243E0,9.742425E-1,1.5536411E-1,1.3998106E0,9.742993E-2,-1.6239798E-1,-5.4936823E-2,5.451393E-1,1.267737E0,2.1229264E-1,8.307303E-2,-1.1361135E-1,-7.1987087E-1,1.0335638E-1,3.392207E-2,-4.3434587E-1,2.8612647E-2,-1.1305594E0,-7.493844E-1,-2.87838E-1,-9.6964216E-1,1.6282363E-1,-4.520221E-1,-9.1905653E-1,-3.485909E-1,-3.8088236E-2,1.1275652E-2,-5.076746E-1,-5.8226217E-2,5.6533616E-2,5.2697625E-4,-1.4938148E-3,6.888113E-2,9.0881504E-2,4.006018E-2,-1.7211404E-2,1.7627528E-2,2.212127E-3,4.229206E-2,7.1535885E-2,2.6092721E-2,-2.6346674E-2,1.6352626E-2,-1.4817821E-2,3.2531437E-2,3.1836987E-2,-3.898413E-2,1.2528141E-2,-2.821002E-2,-2.9907657E-2,-5.7369918E-2,-6.062297E-2,-4.972258E-3,-2.7908493E-2,6.952318E-3,1.4476757E-2,-5.8952626E-2,-1.4312257E-2,1.7450416E-2,-3.7119783E-2,4.0755674E-2,-4.9729224E-2,-1.3137084E-2,2.9771155E-2,-2.9744545E-2,-4.335458E-2,9.015132E-3],"categories":[],"categories_nodes":[],"categories_segments":[],"categories_sizes":[],"default_left":[0,0,0,0,0,0,0,0,0,0,0,0,0,0,0,0,0,0,0,0,0,0,0,0,0,0,0,0,0,0,0,0,0,0,0,0,0,0,0,0,0,0,0,0,0,0,0,0,0,0,0,0,0,0,0,0,0,0,0,0,0,0,0,0,0,0,0,0,0,0,0,0,0,0,0,0,0,0,0,0,0,0,0,0,0,0,0,0,0,0,0,0,0,0,0],"id":3,"left_children":[1,3,5,7,9,11,13,15,17,19,21,23,-1,25,27,29,31,33,35,37,39,41,43,45,47,49,51,53,55,57,59,61,-1,63,-1,65,67,69,-1,71,73,-1,-1,75,-1,77,79,81,83,85,87,89,91,-1,-1,93,-1,-1,-1,-1,-1,-1,-1,-1,-1,-1,-1,-1,-1,-1,-1,-1,-1,-1,-1,-1,-1,-1,-1,-1,-1,-1,-1,-1,-1,-1,-1,-1,-1,-1,-1,-1,-1,-1,-1],"loss_changes":[5.4591223E2,1.3034999E2,1.8154022E1,7.046176E1,1.7922888E1,6.775635E0,9.792913E0,4.020169E1,3.6225986E1,1.3525789E1,3.466703E1,7.361183E0,0E0,2.930676E0,5.4623795E-1,9.0065155E0,5.13266E0,4.0360746E0,1.3986E1,3.9237595E0,9.647697E0,4.2903137E-1,1.8808261E0,1.1062012E0,4.77773E0,3.3558664E0,1.2553673E0,9.762187E-1,2.5139618E-1,7.45702E0,4.5731544E0,9.823936E0,0E0,4.1647997E0,0E0,1.5597944E1,3.8777046E0,2.3753657E0,0E0,6.789299E0,5.533966E0,0E0,0E0,1.5746181E0,0E0,5.4092407E-3,5.646862E0,3.4831326E0,4.911583E0,1.846388E0,6.315259E0,1.2225819E-1,3.408952E0,0E0,0E0,1.1280482E0,0E0,0E0,0E0,0E0,0E0,0E0,0E0,0E0,0E0,0E0,0E0,0E0,0E0,0E0,0E0,0E0,0E0,0E0,0E0,0E0,0E0,0E0,0E0,0E0,0E0,0E0,0E0,0E0,0E0,0E0,0E0,0E0,0E0,0E0,0E0,0E0,0E0,0E0,0E0],"parents":[2147483647,0,0,1,1,2,2,3,3,4,4,5,5,6,6,7,7,8,8,9,9,10,10,11,11,13,13,14,14,15,15,16,16,17,17,18,18,19,19,20,20,21,21,22,22,23,23,24,24,25,25,26,26,27,27,28,28,29,29,30,30,31,31,33,33,35,35,36,36,37,37,39,39,40,40,43,43,45,45,46,46,47,47,48,48,49,49,50,50,51,51,52,52,55,55],"right_children":[2,4,6,8,10,12,14,16,18,20,22,24,-1,26,28,30,32,34,36,38,40,42,44,46,48,50,52,54,56,58,60,62,-1,64,-1,66,68,70,-1,72,74,-1,-1,76,-1,78,80,82,84,86,88,90,92,-1,-1,94,-1,-1,-1,-1,-1,-1,-1,-1,-1,-1,-1,-1,-1,-1,-1,-1,-1,-1,-1,-1,-1,-1,-1,-1,-1,-1,-1,-1,-1,-1,-1,-1,-1,-1,-1,-1,-1,-1,-1],"split_conditions":[3.708072E-1,2.4205412E-1,1.1604294E0,-8.745664E-1,8.833469E-1,1.5693889E0,1.5677776E0,1.7417893E-1,1.7417893E-1,-1.240918E0,-1.01157434E-1,1.1318187E0,-6.142794E-2,1.5693889E0,1.3064369E0,-1.1188008E0,3.7729806E-1,5.8736145E-2,1.0758114E0,2.2636063E0,2.30748E-1,1.5347862E0,1.5575535E0,3.042943E-1,5.9485173E-1,1.3794407E0,1.3578714E0,9.9433625E-1,1.5693889E0,2.30748E-1,3.7166853E-2,-1.2002122E0,9.742993E-2,6.412677E-3,-5.4936823E-2,4.0093315E-1,6.779607E-1,-1.5091857E0,8.307303E-2,8.1762403E-1,-1.6378076E0,1.0335638E-1,3.392207E-2,9.6630573E-1,2.8612647E-2,-1.5554453E0,4.0093315E-1,4.80167E-1,-3.5937634E-1,5.9084004E-1,1.2874007E0,1.2075175E0,9.338647E-2,-3.8088236E-2,1.1275652E-2,1.3910902E0,-5.8226217E-2,5.6533616E-2,5.2697625E-4,-1.4938148E-3,6.888113E-2,9.0881504E-2,4.006018E-2,-1.7211404E-2,1.7627528E-2,2.212127E-3,4.229206E-2,7.1535885E-2,2.6092721E-2,-2.6346674E-2,1.6352626E-2,-1.4817821E-2,3.2531437E-2,3.1836987E-2,-3.898413E-2,1.2528141E-2,-2.821002E-2,-2.9907657E-2,-5.7369918E-2,-6.062297E-2,-4.972258E-3,-2.7908493E-2,6.952318E-3,1.4476757E-2,-5.8952626E-2,-1.4312257E-2,1.7450416E-2,-3.7119783E-2,4.0755674E-2,-4.9729224E-2,-1.3137084E-2,2.9771155E-2,-2.9744545E-2,-4.335458E-2,9.015132E-3],"split_indices":[15,9,18,5,18,15,5,8,8,5,5,14,0,15,18,5,18,18,18,2,12,4,0,18,0,18,18,1,15,12,18,5,0,13,0,17,19,18,0,19,0,0,0,18,0,0,17,18,18,5,19,19,10,0,0,19,0,0,0,0,0,0,0,0,0,0,0,0,0,0,0,0,0,0,0,0,0,0,0,0,0,0,0,0,0,0,0,0,0,0,0,0,0,0,0],"split_type":[0,0,0,0,0,0,0,0,0,0,0,0,0,0,0,0,0,0,0,0,0,0,0,0,0,0,0,0,0,0,0,0,0,0,0,0,0,0,0,0,0,0,0,0,0,0,0,0,0,0,0,0,0,0,0,0,0,0,0,0,0,0,0,0,0,0,0,0,0,0,0,0,0,0,0,0,0,0,0,0,0,0,0,0,0,0,0,0,0,0,0,0,0,0,0],"sum_hessian":[9.065186E2,5.244865E2,3.820321E2,3.645829E2,1.5990363E2,3.0447928E2,7.755281E1,1.782977E2,1.862852E2,1.3335596E2,2.6547663E1,1.3916241E2,1.6531686E2,5.3283752E1,2.4269058E1,6.756114E1,1.1073656E2,4.6438644E1,1.3984656E2,2.60407E1,1.07315254E2,1.0203931E1,1.6343733E1,9.431987E1,4.484255E1,3.4407604E1,1.8876148E1,2.4554646E0,2.1813595E1,4.8544518E1,1.9016623E1,4.4101086E1,6.663547E1,4.218388E1,4.2547636E0,1.0280632E2,3.7040237E1,2.496888E1,1.0718211E0,4.6232063E1,6.108319E1,8.667714E0,1.5362169E0,1.5115072E1,1.2286603E0,7.61571E1,1.8162775E1,2.8510464E1,1.6332085E1,1.988855E1,1.4519054E1,6.738076E0,1.2138071E1,1.3212214E0,1.1342432E0,2.9297392E0,1.8883856E1,4.1616066E1,6.9284487E0,1.7361015E1,1.6556066E0,2.4773256E1,1.9327827E1,3.1420666E1,1.0763214E1,3.8995823E1,6.38105E1,2.9644545E1,7.395694E0,2.872707E0,2.2096172E1,3.7804478E1,8.427585E0,2.172069E0,5.891112E1,2.260844E0,1.2854228E1,3.4545484E0,7.2702545E1,1.010066E1,8.062114E0,1.7267794E1,1.1242671E1,2.2742817E0,1.4057803E1,5.671568E0,1.4216982E1,1.2149111E1,2.3699439E0,5.580474E0,1.1576024E0,2.2183082E0,9.919764E0,1.7533797E0,1.1763597E0],"tree_param":{"num_deleted":"0","num_feature":"20","num_nodes":"95","size_leaf_vector":"1"}},{"base_weights":[-7.2703615E-2,5.666356E-1,-9.5209724E-1,8.66584E-1,-1.24057725E-1,-1.0930017E0,-5.4602116E-1,1.3361118E0,4.1457835E-1,-3.732816E-1,3.83177E-1,-9.251046E-1,-6.1306287E-2,-2.6652327E-1,-8.668804E-1,7.9466754E-1,1.6133925E0,-4.0140924E-1,6.676689E-1,8.3884425E-2,-6.1530495E-1,8.92524E-1,-2.5385115E-1,-6.4472455E-1,-1.0385762E0,-4.8131093E-1,5.8635317E-2,-6.882686E-1,-6.0893197E-2,9.50066E-1,-2.3696308E-1,1.9629487E0,1.4376594E0,7.7820554E-2,-7.1700966E-1,1.2884117E0,5.048241E-1,-4.3430734E-2,9.433334E-2,-5.3250328E-2,-7.068546E-1,4.146588E-1,1.7065593E0,-4.5683286E-1,8.032277E-1,-7.722336E-1,-2.4442786E-2,-2.6096156E-1,-1.0797182E0,5.228153E-2,-6.451188E-1,5.463329E-1,-4.1595528E-1,-9.136252E-1,-3.0471605E-1,5.349459E-2,-2.4951566E-3,3.1362034E-2,-4.032226E-2,1.035878E-1,-1.1059969E-2,4.2514797E-2,8.4571704E-2,2.0876924E-2,-3.9267797E-2,-1.698845E-2,-5.4285984E-2,2.4209892E-2,8.2742415E-2,1.3321293E-2,4.5927238E-2,1.5125106E-2,-3.5538E-2,-1.9323383E-2,6.473685E-2,5.348702E-3,-3.9457537E-2,6.5914966E-4,5.57216E-2,3.184288E-2,9.106376E-2,-3.8956605E-2,8.067775E-3,6.1583105E-3,5.1894892E-2,-1.8778242E-2,-5.2269947E-2,-2.8548703E-2,2.508437E-2,3.1798553E-2,-3.131376E-2,-5.774761E-2,-3.6473636E-2,-2.5169829E-2,5.2351594E-2,-5.8073875E-2,-2.1876397E-2,-7.836717E-3,5.523489E-2,2.5200546E-2,-3.84051E-2,-1.4184005E-2,-5.0690234E-2,-1.2663956E-3,-5.0033845E-2],"categories":[],"categories_nodes":[],"categories_segments":[],"categories_sizes":[],"default_left":[0,0,0,0,0,0,0,0,0,0,0,0,0,0,0,0,0,0,0,0,0,0,0,0,0,0,0,0,0,0,0,0,0,0,0,0,0,0,0,0,0,0,0,0,0,0,0,0,0,0,0,0,0,0,0,0,0,0,0,0,0,0,0,0,0,0,0,0,0,0,0,0,0,0,0,0,0,0,0,0,0,0,0,0,0,0,0,0,0,0,0,0,0,0,0,0,0,0,0,0,0,0,0,0,0],"id":4,"left_children":[1,3,5,7,9,11,13,15,17,19,21,23,-1,25,27,29,31,33,35,37,39,41,43,45,47,49,51,53,-1,55,57,59,61,63,65,67,69,71,-1,73,75,77,79,81,83,85,87,89,91,93,95,97,99,101,103,-1,-1,-1,-1,-1,-1,-1,-1,-1,-1,-1,-1,-1,-1,-1,-1,-1,-1,-1,-1,-1,-1,-1,-1,-1,-1,-1,-1,-1,-1,-1,-1,-1,-1,-1,-1,-1,-1,-1,-1,-1,-1,-1,-1,-1,-1,-1,-1,-1,-1],"loss_changes":[5.0591623E2,1.080661E2,2.1075836E1,7.65806E1,2.0199528E1,5.1285095E0,8.698494E0,2.5414246E1,3.8810555E1,1.1878611E1,1.7346968E1,3.40242E0,0E0,3.8456624E0,2.0399895E0,1.0195583E1,4.3421326E0,6.832598E0,1.3786804E1,8.7762985E0,3.5648441E0,1.0784203E1,5.5642834E0,3.1061707E0,2.5808563E0,2.9203324E0,5.466215E0,2.550418E0,0E0,6.5538673E0,4.9067955E0,9.0802E0,1.0687073E1,5.809486E0,3.4023733E0,7.755787E0,1.1076635E1,8.608558E0,0E0,5.390899E0,4.1111755E0,5.586065E0,1.4163971E-1,4.3014007E0,5.527389E-1,3.1551552E0,2.5206904E0,2.303624E0,1.3884048E0,5.326177E0,2.2083635E0,4.7251616E0,4.2874126E0,9.817829E-1,2.6215603E0,0E0,0E0,0E0,0E0,0E0,0E0,0E0,0E0,0E0,0E0,0E0,0E0,0E0,0E0,0E0,0E0,0E0,0E0,0E0,0E0,0E0,0E0,0E0,0E0,0E0,0E0,0E0,0E0,0E0,0E0,0E0,0E0,0E0,0E0,0E0,0E0,0E0,0E0,0E0,0E0,0E0,0E0,0E0,0E0,0E0,0E0,0E0,0E0,0E0,0E0],"parents":[2147483647,0,0,1,1,2,2,3,3,4,4,5,5,6,6,7,7,8,8,9,9,10,10,11,11,13,13,14,14,15,15,16,16,17,17,18,18,19,19,20,20,21,21,22,22,23,23,24,24,25,25,26,26,27,27,29,29,30,30,31,31,32,32,33,33,34,34,35,35,36,36,37,37,39,39,40,40,41,41,42,42,43,43,44,44,45,45,46,46,47,47,48,48,49,49,50,50,51,51,52,52,53,53,54,54],"right_children":[2,4,6,8,10,12,14,16,18,20,22,24,-1,26,28,30,32,34,36,38,40,42,44,46,48,50,52,54,-1,56,58,60,62,64,66,68,70,72,-1,74,76,78,80,82,84,86,88,90,92,94,96,98,100,102,104,-1,-1,-1,-1,-1,-1,-1,-1,-1,-1,-1,-1,-1,-1,-1,-1,-1,-1,-1,-1,-1,-1,-1,-1,-1,-1,-1,-1,-1,-1,-1,-1,-1,-1,-1,-1,-1,-1,-1,-1,-1,-1,-1,-1,-1,-1,-1,-1,-1,-1],"split_conditions":[3.708072E-1,2.4205412E-1,9.447364E-1,-8.745664E-1,1.8483357E-1,1.5693889E0,1.5693889E0,5.8736145E-2,1.7417893E-1,-1.1595066E0,-1.01157434E-1,2.4205412E-1,-6.1306287E-2,4.0093315E-1,1.3773354E0,-3.145786E-1,-1.240918E0,3.318852E-1,-1.2270682E0,2.2636063E0,3.318852E-1,9.59669E-1,1.2616411E0,1.3362778E0,-1.4908377E0,5.5253208E-2,-2.558965E-1,1.3578714E0,-6.0893197E-2,2.30748E-1,-1.1595066E0,2.30748E-1,3.7729806E-1,2.30748E-1,-3.8609758E-1,5.216464E-1,1.0177402E0,-3.097341E-1,9.433334E-2,-3.5937634E-1,-1.4762403E0,1.267138E-1,8.3149505E-1,2.2636063E0,6.412677E-3,-1.3703834E-1,1.0558916E-1,2.30748E-1,2.959984E-1,1.298141E0,4.73756E-1,1.2267964E0,4.6872285E-1,1.0559013E0,9.8989487E-1,5.349459E-2,-2.4951566E-3,3.1362034E-2,-4.032226E-2,1.035878E-1,-1.1059969E-2,4.2514797E-2,8.4571704E-2,2.0876924E-2,-3.9267797E-2,-1.698845E-2,-5.4285984E-2,2.4209892E-2,8.2742415E-2,1.3321293E-2,4.5927238E-2,1.5125106E-2,-3.5538E-2,-1.9323383E-2,6.473685E-2,5.348702E-3,-3.9457537E-2,6.5914966E-4,5.57216E-2,3.184288E-2,9.106376E-2,-3.8956605E-2,8.067775E-3,6.1583105E-3,5.1894892E-2,-1.8778242E-2,-5.2269947E-2,-2.8548703E-2,2.508437E-2,3.1798553E-2,-3.131376E-2,-5.774761E-2,-3.6473636E-2,-2.5169829E-2,5.2351594E-2,-5.8073875E-2,-2.1876397E-2,-7.836717E-3,5.523489E-2,2.5200546E-2,-3.84051E-2,-1.4184005E-2,-5.0690234E-2,-1.2663956E-3,-5.0033845E-2],"split_indices":[15,9,18,5,18,15,15,18,8,5,5,9,0,17,19,18,5,6,19,2,6,18,0,17,0,7,0,18,0,12,5,12,18,12,5,18,18,19,0,18,19,19,16,2,13,0,11,12,18,18,19,18,5,18,0,0,0,0,0,0,0,0,0,0,0,0,0,0,0,0,0,0,0,0,0,0,0,0,0,0,0,0,0,0,0,0,0,0,0,0,0,0,0,0,0,0,0,0,0,0,0,0,0,0,0],"split_type":[0,0,0,0,0,0,0,0,0,0,0,0,0,0,0,0,0,0,0,0,0,0,0,0,0,0,0,0,0,0,0,0,0,0,0,0,0,0,0,0,0,0,0,0,0,0,0,0,0,0,0,0,0,0,0,0,0,0,0,0,0,0,0,0,0,0,0,0,0,0,0,0,0,0,0,0,0,0,0,0,0,0,0,0,0,0,0,0,0,0,0,0,0,0,0,0,0,0,0,0,0,0,0,0,0],"sum_hessian":[8.9787775E2,5.201051E2,3.7777264E2,3.6244913E2,1.5765598E2,2.7920096E2,9.857168E1,1.7681937E2,1.8562976E2,1.058915E2,5.1764465E1,1.2698967E2,1.5221129E2,5.3659756E1,4.491192E1,6.119338E1,1.1562599E2,4.380673E1,1.4182303E2,3.6880363E1,6.901114E1,2.8542078E1,2.322239E1,3.8511772E1,8.8477905E1,3.2024998E1,2.1634756E1,3.1727236E1,1.3184684E1,5.3251038E1,7.9423404E0,3.527978E1,8.034621E1,1.769334E1,2.6113388E1,2.8037165E1,1.13785866E2,3.5359158E1,1.5212069E0,9.887852E0,5.912329E1,1.8935633E1,9.606444E0,1.9957884E1,3.2645054E0,3.174176E1,6.77001E0,4.8149347E0,8.366297E1,7.6820617E0,2.4342936E1,1.0595485E1,1.1039271E1,1.9114494E1,1.2612743E1,4.7490368E1,5.7606726E0,3.1145332E0,4.827807E0,3.3654675E1,1.6251097E0,2.555336E1,5.479285E1,1.3066911E1,4.62643E0,1.3857147E1,1.2256242E1,9.502813E0,1.8534351E1,7.32316E1,4.0554264E1,2.3647411E1,1.1711745E1,8.499988E0,1.3878641E0,5.402086E0,5.3721203E1,1.2679789E1,6.2558446E0,1.5649748E0,8.04147E0,1.2947313E1,7.0105705E0,1.2286863E0,2.035819E0,1.3913116E1,1.7828646E1,3.2788188E0,3.491191E0,1.1790913E0,3.6358433E0,6.6978264E1,1.6684702E1,5.245703E0,2.436359E0,5.662665E0,1.8680271E1,5.008416E0,5.587068E0,2.936516E0,8.102756E0,3.148423E0,1.5966071E1,9.739348E0,2.8733945E0],"tree_param":{"num_deleted":"0","num_feature":"20","num_nodes":"105","size_leaf_vector":"1"}},{"base_weights":[-7.711725E-2,5.2611345E-1,-9.619549E-1,8.2044655E-1,-1.6014358E-1,-6.168854E-1,-1.0965028E0,1.1179925E0,3.6560786E-1,2.5931036E-1,-3.9911205E-1,-8.001056E-1,-3.193571E-1,-1.1562692E0,-7.0566416E-1,5.778682E-1,1.4277674E0,-5.789093E-2,7.036194E-1,-1.5134564E-1,6.778601E-1,-3.504279E-2,-7.1936154E-1,-9.106128E-1,-2.8183195E-1,-6.486182E-1,-1.2751667E-1,-7.814237E-1,-5.8759194E-2,1.2881732E-1,-1.0153948E0,7.69653E-1,-1.0607257E-1,1.1892195E0,1.7150112E0,-5.559165E-1,1.7840622E-1,-2.929719E-1,8.4250736E-1,2.0529962E-1,-7.377147E-1,2.1779983E-1,1.1145978E0,3.748298E-1,-4.9091592E-1,-9.494221E-1,-3.5246092E-1,-6.54656E-2,-9.505793E-1,-4.5154963E-2,1.6773227E-1,2.4801664E-2,-7.9884547E-1,-6.926216E-1,5.2907225E-2,2.1252727E-2,-1.0731591E0,6.968896E-1,-6.9304544E-1,-1.3498889E-2,-1.0672834E0,4.6174467E-2,-6.3351355E-3,1.9292908E-2,-3.4248587E-2,8.190108E-2,4.704953E-2,3.0928517E-3,8.728334E-2,6.0721384E-3,-3.718679E-2,-1.4173468E-2,2.6517292E-2,-2.9466588E-2,3.1843897E-2,5.1953446E-2,7.942031E-3,2.586844E-2,-3.616758E-2,-4.7755342E-2,3.9440375E-2,-2.0972244E-2,4.3665107E-2,9.088593E-2,5.116574E-4,2.6286999E-3,4.7540512E-2,-3.293201E-2,3.4771346E-2,-1.4021508E-2,-4.8271764E-2,-2.6138136E-2,3.947767E-2,-3.442894E-2,2.6207162E-2,-5.520457E-2,-3.1821173E-2,3.1578977E-2,-4.3147597E-2,-5.2983023E-2,-1.3514857E-2,5.5007236E-3,-4.5443147E-2,4.5747515E-2,-7.057778E-3,3.4092072E-2,-1.9519217E-2,-5.7560135E-2,-1.5099729E-2,8.108278E-2,2.9720466E-3,6.448373E-3,-4.985876E-2,-2.5304142E-2,-5.778827E-2],"categories":[],"categories_nodes":[],"categories_segments":[],"categories_sizes":[],"default_left":[0,0,0,0,0,0,0,0,0,0,0,0,0,0,0,0,0,0,0,0,0,0,0,0,0,0,0,0,0,0,0,0,0,0,0,0,0,0,0,0,0,0,0,0,0,0,0,0,0,0,0,0,0,0,0,0,0,0,0,0,0,0,0,0,0,0,0,0,0,0,0,0,0,0,0,0,0,0,0,0,0,0,0,0,0,0,0,0,0,0,0,0,0,0,0,0,0,0,0,0,0,0,0,0,0,0,0,0,0,0,0,0,0,0,0],"id":5,"left_children":[1,3,5,7,9,11,13,15,17,19,21,23,25,27,29,31,33,35,37,39,41,43,45,47,49,51,53,55,-1,57,59,61,63,65,67,69,71,73,75,77,79,81,83,85,87,89,91,93,95,-1,97,-1,99,101,103,105,107,109,111,-1,113,-1,-1,-1,-1,-1,-1,-1,-1,-1,-1,-1,-1,-1,-1,-1,-1,-1,-1,-1,-1,-1,-1,-1,-1,-1,-1,-1,-1,-1,-1,-1,-1,-1,-1,-1,-1,-1,-1,-1,-1,-1,-1,-1,-1,-1,-1,-1,-1,-1,-1,-1,-1,-1,-1],"loss_changes":[4.7668466E2,1.074113E2,1.6130585E1,4.9917404E1,1.6167072E1,5.4050407E0,5.2378235E0,3.6706818E1,2.1304815E1,1.0203983E1,1.1924067E1,3.3859138E0,2.5221524E0,6.6433716E-1,9.678511E0,1.1026361E1,7.682068E0,7.967325E0,1.1691944E1,6.5260735E0,5.6419125E0,9.342162E0,4.2634563E0,1.6933289E0,3.6778574E0,2.964796E0,2.820271E0,3.2325964E0,0E0,5.5658064E0,7.5823593E-1,9.11961E0,5.71844E0,7.456848E0,3.039505E0,2.8583455E0,7.6442904E0,3.3669233E0,9.622211E0,6.093869E0,4.6513495E0,6.8433685E0,1.1459555E1,4.8457212E0,5.161393E0,8.16021E-2,4.8050113E0,1.6176934E0,1.6871223E0,0E0,4.4502215E0,0E0,1.5866156E0,1.2590711E0,3.7465415E0,1.5263975E0,2.5856018E-1,3.9923003E0,1.3663185E0,0E0,6.542072E-1,0E0,0E0,0E0,0E0,0E0,0E0,0E0,0E0,0E0,0E0,0E0,0E0,0E0,0E0,0E0,0E0,0E0,0E0,0E0,0E0,0E0,0E0,0E0,0E0,0E0,0E0,0E0,0E0,0E0,0E0,0E0,0E0,0E0,0E0,0E0,0E0,0E0,0E0,0E0,0E0,0E0,0E0,0E0,0E0,0E0,0E0,0E0,0E0,0E0,0E0,0E0,0E0,0E0,0E0],"parents":[2147483647,0,0,1,1,2,2,3,3,4,4,5,5,6,6,7,7,8,8,9,9,10,10,11,11,12,12,13,13,14,14,15,15,16,16,17,17,18,18,19,19,20,20,21,21,22,22,23,23,24,24,25,25,26,26,27,27,29,29,30,30,31,31,32,32,33,33,34,34,35,35,36,36,37,37,38,38,39,39,40,40,41,41,42,42,43,43,44,44,45,45,46,46,47,47,48,48,50,50,52,52,53,53,54,54,55,55,56,56,57,57,58,58,60,60],"right_children":[2,4,6,8,10,12,14,16,18,20,22,24,26,28,30,32,34,36,38,40,42,44,46,48,50,52,54,56,-1,58,60,62,64,66,68,70,72,74,76,78,80,82,84,86,88,90,92,94,96,-1,98,-1,100,102,104,106,108,110,112,-1,114,-1,-1,-1,-1,-1,-1,-1,-1,-1,-1,-1,-1,-1,-1,-1,-1,-1,-1,-1,-1,-1,-1,-1,-1,-1,-1,-1,-1,-1,-1,-1,-1,-1,-1,-1,-1,-1,-1,-1,-1,-1,-1,-1,-1,-1,-1,-1,-1,-1,-1,-1,-1,-1,-1],"split_conditions":[3.708072E-1,2.4205412E-1,2.4205412E-1,-6.30332E-1,9.338647E-2,4.0093315E-1,1.2516841E0,1.7417893E-1,6.412677E-3,1.7417893E-1,-6.160412E-1,1.1419181E0,5.5253208E-2,-1.5293064E0,9.4194555E-1,9.338647E-2,5.5253208E-2,1.7417893E-1,-1.0133411E0,3.6404005E-1,6.412677E-3,-1.0780951E0,-3.145786E-1,-3.8609758E-1,9.9433625E-1,-7.9315495E-1,-9.7348416E-1,1.5693889E0,-5.8759194E-2,5.6784306E-2,-1.475549E0,-3.145786E-1,-9.966836E-1,-1.240918E0,-1.7116576E0,-1.1225976E0,4.0093315E-1,1.1556058E0,2.30748E-1,-3.046861E-1,8.1762403E-1,-2.8222466E-1,-1.4186317E-1,8.3149505E-1,6.477438E-1,-1.6254779E0,1.4288317E0,9.9433625E-1,9.447364E-1,-4.5154963E-2,1.3773354E0,2.4801664E-2,8.202982E-1,-3.5364342E-1,-6.583374E-1,1.0317425E0,-1.5554453E0,2.30748E-1,5.5253208E-2,-1.3498889E-2,9.338647E-2,4.6174467E-2,-6.3351355E-3,1.9292908E-2,-3.4248587E-2,8.190108E-2,4.704953E-2,3.0928517E-3,8.728334E-2,6.0721384E-3,-3.718679E-2,-1.4173468E-2,2.6517292E-2,-2.9466588E-2,3.1843897E-2,5.1953446E-2,7.942031E-3,2.586844E-2,-3.616758E-2,-4.7755342E-2,3.9440375E-2,-2.0972244E-2,4.3665107E-2,9.088593E-2,5.116574E-4,2.6286999E-3,4.7540512E-2,-3.293201E-2,3.4771346E-2,-1.4021508E-2,-4.8271764E-2,-2.6138136E-2,3.947767E-2,-3.442894E-2,2.6207162E-2,-5.520457E-2,-3.1821173E-2,3.1578977E-2,-4.3147597E-2,-5.2983023E-2,-1.3514857E-2,5.5007236E-3,-4.5443147E-2,4.5747515E-2,-7.057778E-3,3.4092072E-2,-1.9519217E-2,-5.7560135E-2,-1.5099729E-2,8.108278E-2,2.9720466E-3,6.448373E-3,-4.985876E-2,-2.5304142E-2,-5.778827E-2],"split_indices":[15,9,9,5,10,17,18,8,13,8,19,19,7,0,19,10,7,8,19,0,13,5,18,5,1,5,0,15,0,0,0,18,5,5,19,18,17,0,12,5,19,19,5,16,18,0,0,1,18,0,19,0,18,19,0,3,0,12,7,0,10,0,0,0,0,0,0,0,0,0,0,0,0,0,0,0,0,0,0,0,0,0,0,0,0,0,0,0,0,0,0,0,0,0,0,0,0,0,0,0,0,0,0,0,0,0,0,0,0,0,0,0,0,0,0],"split_type":[0,0,0,0,0,0,0,0,0,0,0,0,0,0,0,0,0,0,0,0,0,0,0,0,0,0,0,0,0,0,0,0,0,0,0,0,0,0,0,0,0,0,0,0,0,0,0,0,0,0,0,0,0,0,0,0,0,0,0,0,0,0,0,0,0,0,0,0,0,0,0,0,0,0,0,0,0,0,0,0,0,0,0,0,0,0,0,0,0,0,0,0,0,0,0,0,0,0,0,0,0,0,0,0,0,0,0,0,0,0,0,0,0,0,0],"sum_hessian":[8.91119E2,5.3011975E2,3.609993E2,3.7086258E2,1.5925714E2,1.0283848E2,2.5816083E2,2.2331596E2,1.4754663E2,5.7770046E1,1.0148709E2,6.2599854E1,4.023863E1,2.2222072E2,3.594011E1,8.243957E1,1.4087639E2,6.585937E1,8.1687256E1,2.9482239E1,2.8287807E1,4.8013416E1,5.347368E1,5.097406E1,1.1625793E1,1.3937047E1,2.630158E1,1.2707136E1,2.0951358E2,9.886862E0,2.6053247E1,6.428734E1,1.8152225E1,7.976985E1,6.1106544E1,2.075758E1,4.5101788E1,9.856005E0,7.183125E1,1.8736238E1,1.0745998E1,1.4505932E1,1.3781877E1,2.5375893E1,2.2637526E1,3.188985E1,2.1583826E1,2.4208035E0,4.8553257E1,4.457289E0,7.1685047E0,1.3498702E0,1.2587177E1,5.6781654E0,2.0623415E1,3.6344671E0,9.072669E0,5.935973E0,3.9508889E0,2.099235E0,2.3954014E1,5.484444E1,9.442901E0,9.993509E0,8.158715E0,2.6414013E1,5.335584E1,1.1674573E0,5.9939087E1,4.5829277E0,1.6174652E1,1.9588696E1,2.5513094E1,7.751629E0,2.1043758E0,5.538703E1,1.6444221E1,1.4355139E1,4.3811E0,9.734092E0,1.0119075E0,7.538002E0,6.96793E0,8.025991E0,5.7558846E0,1.6971674E1,8.404219E0,2.02232E1,2.4143255E0,1.178239E0,3.071161E1,1.9254728E1,2.3290977E0,1.0953517E0,1.3254517E0,3.0926542E1,1.7626715E1,5.2107096E0,1.9577951E0,7.7553887E0,4.8317885E0,1.3093636E0,4.368802E0,3.1070275E0,1.7516388E1,1.1433014E0,2.4911659E0,7.7913556E0,1.2813132E0,1.7921168E0,4.1438565E0,1.2225319E0,2.728357E0,4.1775217E0,1.9776491E1],"tree_param":{"num_deleted":"0","num_feature":"20","num_nodes":"115","size_leaf_vector":"1"}},{"base_weights":[-5.171595E-2,5.2114856E-1,-9.1586363E-1,7.911236E-1,-1.4999881E-1,-5.520077E-1,-1.0561376E0,1.2292596E0,5.250722E-1,-3.6597624E-1,3.4795663E-1,-3.7305942E-1,-9.00648E-1,-1.128068E0,-5.835078E-1,7.8745776E-1,1.4984279E0,-1.8845388E-1,7.7174425E-1,-1.5963013E-1,-9.525983E-1,9.487475E-1,-1.3026223E-1,-4.1427258E-1,4.871002E-2,-1.0924323E0,-6.512597E-1,-5.8914926E-2,-9.679868E-1,2.7964732E-1,-9.379276E-1,8.616914E-1,-4.9529988E-1,1.1154015E0,1.8707172E0,1.8766746E-1,-4.2050877E-1,1.0151218E0,4.3429703E-1,3.3784726E-1,-2.6745248E-1,1.3297763E-1,-1.1035591E0,1.3495829E0,4.4596136E-1,1.2729132E-1,-6.309978E-1,-4.6874905E-1,6.677865E-1,-4.7049633E-1,-5.948479E-2,1.012632E-2,-7.686907E-1,-6.3414174E-1,-5.775258E-2,-3.2553837E-1,1.0748904E0,-4.1188005E-1,-1.0790865E0,2.770774E-2,5.4050773E-2,-4.011694E-2,-2.5909377E-4,3.481296E-2,8.205701E-2,9.68699E-2,3.185694E-2,-1.8366523E-2,2.473965E-2,-7.455192E-3,-4.265164E-2,3.5214256E-2,7.495989E-2,1.0424918E-2,4.0436637E-2,7.561159E-2,4.271709E-3,-3.2909915E-2,-5.0581372E-3,-3.0255673E-2,5.7544876E-2,-8.815608E-3,-6.0844768E-2,8.7074354E-2,2.9949212E-2,-3.117359E-2,3.638736E-2,2.4562607E-2,-1.763386E-2,-3.8787883E-2,1.3724418E-2,-1.2465748E-2,-3.2390114E-2,-1.4054748E-2,6.2301267E-2,-3.964241E-2,3.4597006E-3,-5.322806E-2,-1.390747E-2,-4.582492E-2,-1.6731419E-2,2.3521816E-2,-5.115491E-2,6.50216E-2,9.06526E-3,-3.3924617E-2,1.1479173E-2,-5.606852E-2,-8.726391E-3],"categories":[],"categories_nodes":[],"categories_segments":[],"categories_sizes":[],"default_left":[0,0,0,0,0,0,0,0,0,0,0,0,0,0,0,0,0,0,0,0,0,0,0,0,0,0,0,0,0,0,0,0,0,0,0,0,0,0,0,0,0,0,0,0,0,0,0,0,0,0,0,0,0,0,0,0,0,0,0,0,0,0,0,0,0,0,0,0,0,0,0,0,0,0,0,0,0,0,0,0,0,0,0,0,0,0,0,0,0,0,0,0,0,0,0,0,0,0,0,0,0,0,0,0,0,0,0,0,0],"id":6,"left_children":[1,3,5,7,9,11,13,15,17,19,21,23,25,27,29,31,33,35,37,39,41,43,45,47,-1,49,51,-1,53,55,57,59,61,63,65,67,69,71,73,75,77,79,81,83,85,87,89,91,93,95,-1,-1,97,99,-1,101,103,105,107,-1,-1,-1,-1,-1,-1,-1,-1,-1,-1,-1,-1,-1,-1,-1,-1,-1,-1,-1,-1,-1,-1,-1,-1,-1,-1,-1,-1,-1,-1,-1,-1,-1,-1,-1,-1,-1,-1,-1,-1,-1,-1,-1,-1,-1,-1,-1,-1,-1,-1],"loss_changes":[4.3673245E2,9.625592E1,1.7366272E1,4.347899E1,1.6586916E1,5.899622E0,7.933563E0,1.5738602E1,4.1905617E1,1.2828269E1,1.3572981E1,4.1656475E0,8.761444E-1,6.1450195E-1,1.1108313E1,5.756462E0,1.0362061E1,5.4690495E0,1.4055237E1,4.409956E0,4.6867046E0,3.603693E0,3.5551682E0,4.2297525E0,0E0,4.8600578E-1,1.8506804E0,0E0,2.8730812E0,5.6874285E0,1.43894E0,2.9942245E0,5.521579E-1,8.885033E0,2.2856445E0,4.316124E0,4.3924327E0,1.4261818E1,6.232297E0,4.2540593E0,4.2702293E0,3.907963E0,2.3526554E0,2.227234E0,3.693304E0,3.4267597E0,1.4345021E0,2.3471022E0,2.3240132E0,7.493736E-1,0E0,0E0,1.8911457E0,1.634222E0,0E0,4.404266E0,7.769923E-1,1.350083E0,5.455437E-1,0E0,0E0,0E0,0E0,0E0,0E0,0E0,0E0,0E0,0E0,0E0,0E0,0E0,0E0,0E0,0E0,0E0,0E0,0E0,0E0,0E0,0E0,0E0,0E0,0E0,0E0,0E0,0E0,0E0,0E0,0E0,0E0,0E0,0E0,0E0,0E0,0E0,0E0,0E0,0E0,0E0,0E0,0E0,0E0,0E0,0E0,0E0,0E0,0E0,0E0],"parents":[2147483647,0,0,1,1,2,2,3,3,4,4,5,5,6,6,7,7,8,8,9,9,10,10,11,11,12,12,13,13,14,14,15,15,16,16,17,17,18,18,19,19,20,20,21,21,22,22,23,23,25,25,26,26,28,28,29,29,30,30,31,31,32,32,33,33,34,34,35,35,36,36,37,37,38,38,39,39,40,40,41,41,42,42,43,43,44,44,45,45,46,46,47,47,48,48,49,49,52,52,53,53,55,55,56,56,57,57,58,58],"right_children":[2,4,6,8,10,12,14,16,18,20,22,24,26,28,30,32,34,36,38,40,42,44,46,48,-1,50,52,-1,54,56,58,60,62,64,66,68,70,72,74,76,78,80,82,84,86,88,90,92,94,96,-1,-1,98,100,-1,102,104,106,108,-1,-1,-1,-1,-1,-1,-1,-1,-1,-1,-1,-1,-1,-1,-1,-1,-1,-1,-1,-1,-1,-1,-1,-1,-1,-1,-1,-1,-1,-1,-1,-1,-1,-1,-1,-1,-1,-1,-1,-1,-1,-1,-1,-1,-1,-1,-1,-1,-1,-1],"split_conditions":[3.708072E-1,2.30748E-1,2.4205412E-1,-1.0373893E0,4.80167E-1,1.5693889E0,1.2516841E0,-3.4177743E-2,1.7417893E-1,-5.8962625E-1,-3.4539184E-1,1.5714886E0,9.2814463E-1,2.959984E-1,1.0160094E0,-2.7973586E-1,2.2511296E-1,3.318852E-1,-1.4186317E-1,-1.1909798E0,-1.5323173E0,-2.1249601E-1,6.722515E-1,1.4690362E0,4.871002E-2,-3.4610292E-1,1.0559013E0,-5.8914926E-2,1.5693889E0,7.075863E-1,1.0317425E0,8.3149505E-1,-3.4910893E-1,5.5253208E-2,1.5314146E0,-8.4405214E-1,1.0317425E0,8.0868393E-1,1.0177402E0,-1.1455979E0,-4.201279E-1,1.0317425E0,-1.5008898E0,5.5253208E-2,5.6784306E-2,9.9433625E-1,1.3235433E0,-7.489673E-2,4.0093315E-1,5.6784306E-2,-5.948479E-2,1.012632E-2,2.6293662E-1,2.30748E-1,-5.775258E-2,5.6784306E-2,1.495583E0,1.6797516E0,1.5471534E0,2.770774E-2,5.4050773E-2,-4.011694E-2,-2.5909377E-4,3.481296E-2,8.205701E-2,9.68699E-2,3.185694E-2,-1.8366523E-2,2.473965E-2,-7.455192E-3,-4.265164E-2,3.5214256E-2,7.495989E-2,1.0424918E-2,4.0436637E-2,7.561159E-2,4.271709E-3,-3.2909915E-2,-5.0581372E-3,-3.0255673E-2,5.7544876E-2,-8.815608E-3,-6.0844768E-2,8.7074354E-2,2.9949212E-2,-3.117359E-2,3.638736E-2,2.4562607E-2,-1.763386E-2,-3.8787883E-2,1.3724418E-2,-1.2465748E-2,-3.2390114E-2,-1.4054748E-2,6.2301267E-2,-3.964241E-2,3.4597006E-3,-5.322806E-2,-1.390747E-2,-4.582492E-2,-1.6731419E-2,2.3521816E-2,-5.115491E-2,6.50216E-2,9.06526E-3,-3.3924617E-2,1.1479173E-2,-5.606852E-2,-8.726391E-3],"split_indices":[15,12,9,5,18,15,18,18,8,5,5,19,18,18,19,18,19,6,5,0,19,0,5,18,0,18,18,0,15,19,3,16,0,7,0,19,3,18,18,19,0,3,18,7,0,1,5,0,17,0,0,0,0,12,0,0,18,18,19,0,0,0,0,0,0,0,0,0,0,0,0,0,0,0,0,0,0,0,0,0,0,0,0,0,0,0,0,0,0,0,0,0,0,0,0,0,0,0,0,0,0,0,0,0,0,0,0,0,0],"split_type":[0,0,0,0,0,0,0,0,0,0,0,0,0,0,0,0,0,0,0,0,0,0,0,0,0,0,0,0,0,0,0,0,0,0,0,0,0,0,0,0,0,0,0,0,0,0,0,0,0,0,0,0,0,0,0,0,0,0,0,0,0,0,0,0,0,0,0,0,0,0,0,0,0,0,0,0,0,0,0,0,0,0,0,0,0,0,0,0,0,0,0,0,0,0,0,0,0,0,0,0,0,0,0,0,0,0,0,0,0],"sum_hessian":[8.802531E2,5.2957916E2,3.5067398E2,3.7753397E2,1.520452E2,9.8948074E1,2.517259E2,1.4126956E2,2.362644E2,1.0623367E2,4.5811523E1,6.675465E1,3.2193428E1,2.1727202E2,3.445388E1,5.496984E1,8.629972E1,6.075625E1,1.7550815E2,7.953065E1,2.670303E1,1.9867666E1,2.5943857E1,6.544517E1,1.3094832E0,1.628755E1,1.5905878E1,1.6053775E2,5.6734272E1,1.0090476E1,2.4363405E1,5.227303E1,2.6968102E0,4.4506096E1,4.179362E1,2.3255054E1,3.7501194E1,1.0079986E2,7.47083E1,1.3786814E1,6.574383E1,3.2745438E0,2.3428486E1,1.01175E1,9.750166E0,1.7624487E1,8.319371E0,6.2847874E1,2.5972908E0,2.99214E0,1.3295409E1,1.8355807E0,1.4070297E1,2.1950418E1,3.478385E1,6.0653467E0,4.02513E0,5.983382E0,1.8380022E1,2.3228556E1,2.9044476E1,1.2664188E0,1.4303916E0,2.6056799E1,1.8449297E1,3.9109043E1,2.6845803E0,8.21462E0,1.5040435E1,2.3868593E1,1.3632599E1,6.2878784E1,3.7921074E1,4.7575394E1,2.7132902E1,1.5560396E0,1.2230775E1,1.8743177E1,4.7000652E1,2.133261E0,1.1412829E0,2.8300908E0,2.0598394E1,5.7796736E0,4.3378263E0,1.780446E0,7.96972E0,1.0010217E1,7.6142697E0,7.2961984E0,1.0231726E0,2.9314564E1,3.353331E1,1.1780331E0,1.4192576E0,1.5795877E0,1.4125524E0,8.046728E0,6.0235686E0,1.0238469E1,1.1711948E1,2.9849098E0,3.080437E0,2.8503914E0,1.1747385E0,4.185876E0,1.7975062E0,1.7330227E1,1.0497952E0],"tree_param":{"num_deleted":"0","num_feature":"20","num_nodes":"109","size_leaf_vector":"1"}},{"base_weights":[-7.584463E-2,4.6055543E-1,-8.9648706E-1,7.120667E-1,-1.6589524E-1,-1.0162084E0,-5.56109E-1,1.334839E0,5.2847695E-1,2.3008761E-1,-3.9828774E-1,-7.1776986E-1,-1.0885111E0,-4.0965056E-1,-9.514664E-1,1.0476882E0,1.6402788E0,-5.556353E-2,7.48182E-1,-2.5909938E-2,8.9134175E-1,2.383105E-1,-5.910258E-1,-9.4792956E-1,-3.7333244E-1,-9.6524674E-1,-5.7973105E-2,-2.5223348E-1,-7.762434E-1,-1.0094401E-2,-9.77375E-1,1.1610649E0,2.126891E-1,1.9048994E-2,1.6909009E0,4.495885E-1,-1.9519648E-1,9.814362E-1,3.4405446E-1,4.830061E-1,-5.411871E-1,1.2737316E0,-2.9634005E-1,-1.4075078E-1,5.009632E-1,6.0307944E-1,-6.518838E-1,1.7819047E-2,-1.0294161E0,-5.5784047E-1,4.5402735E-1,-1.0604719E0,-5.8983606E-1,-6.798126E-1,8.199621E-2,1.3199649E-2,-8.4806347E-1,-1.005119E0,-1.286688E-2,4.9088392E-2,8.4333725E-2,-1.7647896E-2,3.860839E-2,8.7843664E-2,2.5387112E-2,4.7816135E-2,-1.2438689E-2,2.8030708E-2,-1.3648543E-2,3.0125836E-2,6.274678E-2,5.5298884E-3,3.9667446E-2,1.443326E-2,6.818458E-2,1.0613205E-2,-3.0913237E-2,1.37750385E-2,7.501236E-2,2.5085334E-2,-3.663799E-2,4.7866218E-2,-2.6731625E-2,7.048359E-2,-2.4786994E-3,5.920599E-2,-1.7922891E-2,-3.857427E-2,-8.630116E-3,-1.0548433E-2,-5.548781E-2,-4.4432193E-2,-6.303677E-3,5.3761143E-2,-1.0795284E-2,-5.3641874E-2,-7.4796537E-3,-9.188531E-3,-4.43374E-2,-2.0226123E-2,-5.25192E-2,4.8311543E-2,-2.7618492E-3,-1.793713E-2,-5.0796147E-2,-5.4394174E-2,-3.1165367E-2],"categories":[],"categories_nodes":[],"categories_segments":[],"categories_sizes":[],"default_left":[0,0,0,0,0,0,0,0,0,0,0,0,0,0,0,0,0,0,0,0,0,0,0,0,0,0,0,0,0,0,0,0,0,0,0,0,0,0,0,0,0,0,0,0,0,0,0,0,0,0,0,0,0,0,0,0,0,0,0,0,0,0,0,0,0,0,0,0,0,0,0,0,0,0,0,0,0,0,0,0,0,0,0,0,0,0,0,0,0,0,0,0,0,0,0,0,0,0,0,0,0,0,0,0,0,0,0],"id":7,"left_children":[1,3,5,7,9,11,13,15,17,19,21,23,25,27,29,31,33,35,37,39,41,43,45,47,49,51,-1,53,55,-1,57,59,61,-1,63,65,67,69,71,73,75,77,79,81,83,85,87,-1,89,91,93,95,97,99,101,-1,103,105,-1,-1,-1,-1,-1,-1,-1,-1,-1,-1,-1,-1,-1,-1,-1,-1,-1,-1,-1,-1,-1,-1,-1,-1,-1,-1,-1,-1,-1,-1,-1,-1,-1,-1,-1,-1,-1,-1,-1,-1,-1,-1,-1,-1,-1,-1,-1,-1,-1],"loss_changes":[3.9241736E2,8.507247E1,1.3792938E1,4.3303726E1,1.4380444E1,4.817108E0,5.0467987E0,5.9103546E0,3.839988E1,9.851246E0,1.2191477E1,3.8900871E0,6.904297E-1,3.8591633E0,2.8088188E-1,4.2593765E0,1.929985E0,5.917205E0,2.014502E1,1.1491981E1,7.7493286E0,2.4139686E0,5.892643E0,3.708538E0,3.7785878E0,2.2901688E0,0E0,7.2926035E0,1.7649527E0,0E0,2.1160507E-1,2.272564E0,2.4608657E0,0E0,2.115364E0,6.6786485E0,4.0000644E0,1.3465729E1,8.41454E0,3.3845205E0,1.3944645E0,2.4057522E0,2.0270414E0,5.0162764E0,7.135378E0,2.7649906E0,4.0220394E0,0E0,1.7286053E0,2.6490355E0,2.2139986E0,5.5818176E-1,2.098332E0,1.8525476E0,3.6105993E0,0E0,1.2398987E0,2.7326584E-2,0E0,0E0,0E0,0E0,0E0,0E0,0E0,0E0,0E0,0E0,0E0,0E0,0E0,0E0,0E0,0E0,0E0,0E0,0E0,0E0,0E0,0E0,0E0,0E0,0E0,0E0,0E0,0E0,0E0,0E0,0E0,0E0,0E0,0E0,0E0,0E0,0E0,0E0,0E0,0E0,0E0,0E0,0E0,0E0,0E0,0E0,0E0,0E0,0E0],"parents":[2147483647,0,0,1,1,2,2,3,3,4,4,5,5,6,6,7,7,8,8,9,9,10,10,11,11,12,12,13,13,14,14,15,15,16,16,17,17,18,18,19,19,20,20,21,21,22,22,23,23,24,24,25,25,27,27,28,28,30,30,31,31,32,32,34,34,35,35,36,36,37,37,38,38,39,39,40,40,41,41,42,42,43,43,44,44,45,45,46,46,48,48,49,49,50,50,51,51,52,52,53,53,54,54,56,56,57,57],"right_children":[2,4,6,8,10,12,14,16,18,20,22,24,26,28,30,32,34,36,38,40,42,44,46,48,50,52,-1,54,56,-1,58,60,62,-1,64,66,68,70,72,74,76,78,80,82,84,86,88,-1,90,92,94,96,98,100,102,-1,104,106,-1,-1,-1,-1,-1,-1,-1,-1,-1,-1,-1,-1,-1,-1,-1,-1,-1,-1,-1,-1,-1,-1,-1,-1,-1,-1,-1,-1,-1,-1,-1,-1,-1,-1,-1,-1,-1,-1,-1,-1,-1,-1,-1,-1,-1,-1,-1,-1,-1],"split_conditions":[3.708072E-1,2.30748E-1,9.447364E-1,-1.2002122E0,9.338647E-2,2.30748E-1,1.5677776E0,9.30307E-1,1.7417893E-1,1.0276953E0,-1.240918E0,4.0093315E-1,1.5693889E0,1.5347862E0,1.0276953E0,2.4205412E-1,-6.729607E-1,-1.0780951E0,-2.2327463E-1,-7.524492E-1,4.280171E-1,-4.201279E-1,-1.6254779E0,-5.082148E-1,1.3235433E0,1.1354446E0,-5.7973105E-2,1.2516841E0,9.7957915E-1,-1.0094401E-2,1.5471534E0,2.8054994E-3,8.3149505E-1,1.9048994E-2,1.5698832E0,-8.4405214E-1,-1.489995E0,5.3326064E-1,1.0559013E0,-8.745664E-1,-1.5751685E0,-1.380857E0,1.2516841E0,-1.3655682E0,2.1016559E-1,-1.0780951E0,6.21197E-1,1.7819047E-2,-1.4908377E0,6.412677E-3,2.4205412E-1,1.6813436E0,3.0589992E-1,1.1200147E0,1.3064369E0,1.3199649E-2,-5.3441155E-1,4.0093315E-1,-1.286688E-2,4.9088392E-2,8.4333725E-2,-1.7647896E-2,3.860839E-2,8.7843664E-2,2.5387112E-2,4.7816135E-2,-1.2438689E-2,2.8030708E-2,-1.3648543E-2,3.0125836E-2,6.274678E-2,5.5298884E-3,3.9667446E-2,1.443326E-2,6.818458E-2,1.0613205E-2,-3.0913237E-2,1.37750385E-2,7.501236E-2,2.5085334E-2,-3.663799E-2,4.7866218E-2,-2.6731625E-2,7.048359E-2,-2.4786994E-3,5.920599E-2,-1.7922891E-2,-3.857427E-2,-8.630116E-3,-1.0548433E-2,-5.548781E-2,-4.4432193E-2,-6.303677E-3,5.3761143E-2,-1.0795284E-2,-5.3641874E-2,-7.4796537E-3,-9.188531E-3,-4.43374E-2,-2.0226123E-2,-5.25192E-2,4.8311543E-2,-2.7618492E-3,-1.793713E-2,-5.0796147E-2,-5.4394174E-2,-3.1165367E-2],"split_indices":[15,12,18,5,10,12,5,19,8,18,5,17,15,4,18,9,18,5,5,5,5,0,0,5,5,13,0,18,18,0,19,14,16,0,0,19,19,18,18,5,19,0,18,0,0,5,18,0,0,13,9,0,5,5,18,0,17,17,0,0,0,0,0,0,0,0,0,0,0,0,0,0,0,0,0,0,0,0,0,0,0,0,0,0,0,0,0,0,0,0,0,0,0,0,0,0,0,0,0,0,0,0,0,0,0,0,0],"split_type":[0,0,0,0,0,0,0,0,0,0,0,0,0,0,0,0,0,0,0,0,0,0,0,0,0,0,0,0,0,0,0,0,0,0,0,0,0,0,0,0,0,0,0,0,0,0,0,0,0,0,0,0,0,0,0,0,0,0,0,0,0,0,0,0,0,0,0,0,0,0,0,0,0,0,0,0,0,0,0,0,0,0,0,0,0,0,0,0,0,0,0,0,0,0,0,0,0,0,0,0,0,0,0,0,0,0,0],"sum_hessian":[8.8952936E2,5.381892E2,3.5134015E2,3.8391568E2,1.542735E2,2.584499E2,9.2890274E1,8.598093E1,2.9793478E2,5.7058746E1,9.721475E1,5.2534477E1,2.059154E2,6.926683E1,2.3623447E1,4.660069E1,3.9380234E1,8.1645134E1,2.1628963E2,4.182677E1,1.5231975E1,2.2537796E1,7.4676956E1,3.0441067E1,2.2093409E1,8.0560555E1,1.2535485E2,4.963942E1,1.9627409E1,1.0829939E0,2.2540453E1,4.068585E1,5.914844E0,1.8513429E0,3.752889E1,1.7200146E1,6.444499E1,1.3623122E2,8.0058426E1,2.1074785E1,2.0751986E1,1.1467432E1,3.7645426E0,9.414654E0,1.3123143E1,3.18931E0,7.148765E1,1.5916067E0,2.884946E1,1.8331167E1,3.7622426E0,6.280489E1,1.7755667E1,2.1324753E1,2.8314667E1,1.0947906E0,1.853262E1,2.1322927E1,1.2175262E0,3.247558E1,8.210269E0,3.1247618E0,2.7900822E0,3.5087524E1,2.4413643E0,9.753553E0,7.446592E0,5.4335537E0,5.901144E1,5.845196E1,7.777925E1,5.350368E1,2.6554743E1,1.8352674E1,2.7221112E0,1.763126E0,1.898886E1,2.5307848E0,8.936647E0,1.2779886E0,2.486554E0,2.1078475E0,7.306806E0,4.362283E0,8.7608595E0,1.8437049E0,1.3456051E0,5.672309E1,1.4764555E1,2.9028869E0,2.5946573E1,9.77997E0,8.551197E0,1.6382264E0,2.1240163E0,6.178828E1,1.0166093E0,8.1831255E0,9.572541E0,1.3435445E1,7.8893085E0,2.9924726E0,2.5322195E1,5.5349765E0,1.29976425E1,1.6004417E1,5.3185096E0],"tree_param":{"num_deleted":"0","num_feature":"20","num_nodes":"107","size_leaf_vector":"1"}},{"base_weights":[-3.9413504E-2,4.8361048E-1,-8.6034626E-1,7.280562E-1,-1.3692217E-1,-1.0042976E0,-4.6572542E-1,1.0875252E0,3.7396803E-1,-3.2614815E-1,2.7313817E-1,-6.583077E-1,-1.0958122E0,-9.648639E-2,-7.9927653E-1,5.8517486E-1,1.3029312E0,-1.8166587E-1,5.5532277E-1,2.4451336E-1,-5.116151E-1,5.529477E-1,-4.9776447E-1,-7.162368E-1,4.703315E-2,-5.5587363E-1,-5.638335E-2,1.9608329E-1,-5.116546E-1,-3.3852673E-1,-9.1885424E-1,7.51252E-1,-9.183116E-2,1.05345E0,1.6265751E0,2.0825881E-1,-4.7376356E-1,1.3767391E0,4.745861E-1,-2.978903E-1,5.116252E-1,-2.922137E-1,-8.1647587E-1,8.3765787E-1,1.5660983E-1,-8.7328887E-1,5.384635E-2,-9.460985E-1,-4.9457783E-1,9.264397E-2,-8.806831E-1,2.2287557E-2,1.1735255E0,-1.038798E-1,-8.1720376E-1,-8.470599E-1,5.914322E-2,-3.868214E-1,-1.0434883E0,4.565238E-2,-1.0260895E-2,2.1251433E-2,-3.4218058E-2,3.8248267E-2,7.259669E-2,6.782555E-2,9.826466E-2,-8.961785E-4,4.458367E-2,-3.496485E-2,7.960191E-4,9.645556E-2,3.0148173E-2,1.4657998E-2,4.340709E-2,-3.5436865E-2,6.4344304E-3,4.2440187E-2,-1.2641224E-2,-2.6009485E-2,1.2821495E-2,-2.0764776E-2,-5.068473E-2,5.0285738E-2,-2.231178E-2,6.89719E-2,-3.352536E-3,-1.0746942E-2,-4.6914745E-2,-3.282633E-2,2.9609127E-2,-4.8634376E-2,-8.602659E-3,1.3526604E-2,-3.2878824E-2,3.943748E-2,-2.0364713E-2,-5.409136E-2,5.8269715E-3,-4.443901E-3,6.218017E-2,1.1628301E-2,7.2592005E-2,-2.6588226E-2,3.6584094E-2,-5.2321184E-2,8.784138E-3,-4.9116008E-2,-7.389981E-3,-4.1981425E-2,2.467782E-2,-4.0056087E-2,2.4098154E-2,-5.3455777E-2,-8.226494E-3],"categories":[],"categories_nodes":[],"categories_segments":[],"categories_sizes":[],"default_left":[0,0,0,0,0,0,0,0,0,0,0,0,0,0,0,0,0,0,0,0,0,0,0,0,0,0,0,0,0,0,0,0,0,0,0,0,0,0,0,0,0,0,0,0,0,0,0,0,0,0,0,0,0,0,0,0,0,0,0,0,0,0,0,0,0,0,0,0,0,0,0,0,0,0,0,0,0,0,0,0,0,0,0,0,0,0,0,0,0,0,0,0,0,0,0,0,0,0,0,0,0,0,0,0,0,0,0,0,0,0,0,0,0,0,0],"id":8,"left_children":[1,3,5,7,9,11,13,15,17,19,21,23,25,27,29,31,33,35,37,39,41,43,45,47,-1,49,-1,51,53,55,57,59,61,63,65,67,69,71,73,75,77,79,81,83,85,87,89,91,93,95,97,99,101,103,105,107,109,111,113,-1,-1,-1,-1,-1,-1,-1,-1,-1,-1,-1,-1,-1,-1,-1,-1,-1,-1,-1,-1,-1,-1,-1,-1,-1,-1,-1,-1,-1,-1,-1,-1,-1,-1,-1,-1,-1,-1,-1,-1,-1,-1,-1,-1,-1,-1,-1,-1,-1,-1,-1,-1,-1,-1,-1,-1],"loss_changes":[3.751971E2,8.107244E1,1.884932E1,4.8357773E1,1.1860099E1,7.140457E0,1.1346569E1,1.9752914E1,1.9702728E1,1.1159447E1,1.0724856E1,5.716526E0,2.7245636E0,5.5856695E0,2.3663177E0,6.670397E0,8.934586E0,5.6364927E0,9.089134E0,3.9554389E0,5.045946E0,3.9329948E0,2.8283522E0,2.2378902E0,0E0,2.7836456E0,0E0,4.5968595E0,2.2756228E0,2.3952343E0,2.116024E0,7.500387E0,4.105838E0,7.776474E0,2.41716E0,3.3422256E0,3.1148643E0,4.231167E0,9.404951E0,1.7199366E0,4.8428125E0,6.074617E0,2.150959E0,4.9216566E0,4.546866E0,1.426959E-1,2.8287683E0,3.4666824E-1,3.8108568E0,2.12586E0,1.8595438E0,3.3859606E0,7.33191E-1,3.7000525E0,2.6155477E0,3.4230494E-1,3.3201704E0,3.5539737E0,5.043068E-1,0E0,0E0,0E0,0E0,0E0,0E0,0E0,0E0,0E0,0E0,0E0,0E0,0E0,0E0,0E0,0E0,0E0,0E0,0E0,0E0,0E0,0E0,0E0,0E0,0E0,0E0,0E0,0E0,0E0,0E0,0E0,0E0,0E0,0E0,0E0,0E0,0E0,0E0,0E0,0E0,0E0,0E0,0E0,0E0,0E0,0E0,0E0,0E0,0E0,0E0,0E0,0E0,0E0,0E0,0E0,0E0],"parents":[2147483647,0,0,1,1,2,2,3,3,4,4,5,5,6,6,7,7,8,8,9,9,10,10,11,11,12,12,13,13,14,14,15,15,16,16,17,17,18,18,19,19,20,20,21,21,22,22,23,23,25,25,27,27,28,28,29,29,30,30,31,31,32,32,33,33,34,34,35,35,36,36,37,37,38,38,39,39,40,40,41,41,42,42,43,43,44,44,45,45,46,46,47,47,48,48,49,49,50,50,51,51,52,52,53,53,54,54,55,55,56,56,57,57,58,58],"right_children":[2,4,6,8,10,12,14,16,18,20,22,24,26,28,30,32,34,36,38,40,42,44,46,48,-1,50,-1,52,54,56,58,60,62,64,66,68,70,72,74,76,78,80,82,84,86,88,90,92,94,96,98,100,102,104,106,108,110,112,114,-1,-1,-1,-1,-1,-1,-1,-1,-1,-1,-1,-1,-1,-1,-1,-1,-1,-1,-1,-1,-1,-1,-1,-1,-1,-1,-1,-1,-1,-1,-1,-1,-1,-1,-1,-1,-1,-1,-1,-1,-1,-1,-1,-1,-1,-1,-1,-1,-1,-1,-1,-1,-1,-1,-1,-1],"split_conditions":[3.708072E-1,2.30748E-1,9.447364E-1,-8.745664E-1,4.735303E-1,2.4205412E-1,1.046164E0,8.3149505E-1,1.7417893E-1,-1.240918E0,4.6872285E-1,1.5857724E0,-1.4908377E0,5.6784306E-2,1.0317425E0,9.338647E-2,5.5253208E-2,3.318852E-1,-1.5614138E0,-1.4942532E0,2.6293662E-1,9.9433625E-1,9.9433625E-1,9.9433625E-1,4.703315E-2,1.5693889E0,-5.638335E-2,-1.740274E-1,1.0317425E0,9.9433625E-1,1.4049548E0,2.4205412E-1,7.16949E-2,9.847968E-1,2.8054994E-3,1.0609769E0,7.107508E-1,-3.219836E-1,1.0177402E0,-2.558965E-1,2.3630452E-1,5.245427E-1,-6.160412E-1,1.0747315E0,5.3326064E-1,5.794018E-2,4.9967834E-1,1.6241338E0,-2.639804E-1,1.0317425E0,-1.5431156E0,1.364249E0,1.0317425E0,7.53663E-1,1.4288317E0,1.4434639E0,2.30748E-1,1.364249E0,1.5471534E0,4.565238E-2,-1.0260895E-2,2.1251433E-2,-3.4218058E-2,3.8248267E-2,7.259669E-2,6.782555E-2,9.826466E-2,-8.961785E-4,4.458367E-2,-3.496485E-2,7.960191E-4,9.645556E-2,3.0148173E-2,1.4657998E-2,4.340709E-2,-3.5436865E-2,6.4344304E-3,4.2440187E-2,-1.2641224E-2,-2.6009485E-2,1.2821495E-2,-2.0764776E-2,-5.068473E-2,5.0285738E-2,-2.231178E-2,6.89719E-2,-3.352536E-3,-1.0746942E-2,-4.6914745E-2,-3.282633E-2,2.9609127E-2,-4.8634376E-2,-8.602659E-3,1.3526604E-2,-3.2878824E-2,3.943748E-2,-2.0364713E-2,-5.409136E-2,5.8269715E-3,-4.443901E-3,6.218017E-2,1.1628301E-2,7.2592005E-2,-2.6588226E-2,3.6584094E-2,-5.2321184E-2,8.784138E-3,-4.9116008E-2,-7.389981E-3,-4.1981425E-2,2.467782E-2,-4.0056087E-2,2.4098154E-2,-5.3455777E-2,-8.226494E-3],"split_indices":[15,12,18,5,18,9,19,16,8,5,5,19,0,0,3,10,7,6,19,18,0,1,1,1,0,15,0,0,3,1,5,9,19,19,14,19,0,0,18,0,0,19,19,19,18,19,19,0,5,3,0,5,3,5,0,19,12,5,19,0,0,0,0,0,0,0,0,0,0,0,0,0,0,0,0,0,0,0,0,0,0,0,0,0,0,0,0,0,0,0,0,0,0,0,0,0,0,0,0,0,0,0,0,0,0,0,0,0,0,0,0,0,0,0,0],"split_type":[0,0,0,0,0,0,0,0,0,0,0,0,0,0,0,0,0,0,0,0,0,0,0,0,0,0,0,0,0,0,0,0,0,0,0,0,0,0,0,0,0,0,0,0,0,0,0,0,0,0,0,0,0,0,0,0,0,0,0,0,0,0,0,0,0,0,0,0,0,0,0,0,0,0,0,0,0,0,0,0,0,0,0,0,0,0,0,0,0,0,0,0,0,0,0,0,0,0,0,0,0,0,0,0,0,0,0,0,0,0,0,0,0,0,0],"sum_hessian":[8.7186774E2,5.3281635E2,3.390514E2,3.821164E2,1.5069994E2,2.4729659E2,9.17548E1,1.8858955E2,1.9352684E2,1.0325612E2,4.7443817E1,5.3441883E1,1.938547E2,4.4159626E1,4.7595173E1,5.7713E1,1.3087654E2,4.7621754E1,1.4590509E2,2.5249086E1,7.8007034E1,3.5016743E1,1.24270735E1,5.2106194E1,1.3356924E0,1.1827552E1,1.8202716E2,2.6214167E1,1.7945461E1,1.05964775E1,3.6998695E1,4.6256176E1,1.1456825E1,7.6308815E1,5.4567734E1,2.0518452E1,2.7103302E1,1.1620961E1,1.3428412E2,8.293295E0,1.6955791E1,4.650032E1,3.1506714E1,1.9730093E1,1.5286651E1,7.046685E0,5.3803883E0,2.397535E1,2.8130842E1,4.185506E0,7.642046E0,2.312516E1,3.0890057E0,8.260832E0,9.684629E0,4.1541576E0,6.44232E0,7.801142E0,2.9197554E1,3.960246E1,6.653717E0,6.2701263E0,5.186699E0,4.595739E1,3.0351421E1,3.314535E1,2.142238E1,1.614792E1,4.37053E0,1.8263594E1,8.839708E0,5.909358E0,5.711603E0,9.3107285E1,4.1176838E1,3.8876112E0,4.4056835E0,1.168951E1,5.266281E0,3.288683E1,1.361349E1,1.1407487E1,2.0099226E1,1.7638012E1,2.0920818E0,1.5646462E0,1.3722005E1,1.0202743E0,6.026411E0,2.2249115E0,3.155477E0,2.293102E1,1.0443275E0,4.8246026E0,2.330624E1,1.5080409E0,2.677465E0,6.28874E0,1.3533058E0,2.204576E1,1.0794029E0,1.124108E0,1.9648976E0,5.7036304E0,2.557201E0,7.8243604E0,1.8602688E0,3.1416574E0,1.0125002E0,1.7952598E0,4.64706E0,5.334935E0,2.4662073E0,2.8160162E1,1.0373908E0],"tree_param":{"num_deleted":"0","num_feature":"20","num_nodes":"115","size_leaf_vector":"1"}},{"base_weights":[-6.421904E-2,4.1665047E-1,-8.4879375E-1,6.444237E-1,-1.3547719E-1,-9.98477E-1,-4.5145994E-1,9.937023E-1,3.0078068E-1,-2.4821611E-1,4.2260638E-1,-7.3481834E-1,-1.0699639E0,-1.9027205E-1,-7.416924E-1,5.213987E-1,1.2397131E0,-5.7362918E-2,5.879094E-1,3.7106287E-1,-4.0782523E-1,1.4725468E0,-3.004654E-1,-7.745752E-1,1.9713221E-2,-5.3053355E-1,-5.512329E-2,-1.3399023E-2,-6.8410593E-1,-5.5362463E-1,-5.7339173E-2,8.4666157E-1,-3.502539E-2,9.666721E-1,1.4173944E0,4.640036E-2,-6.3575304E-1,-1.1057385E-1,7.153038E-1,-4.2527737E-3,9.6195304E-1,-2.3514958E-1,-6.6849214E-1,9.3209006E-2,7.4593055E-1,-6.024409E-1,1.9200231E-1,-9.5944107E-1,-4.8076072E-1,5.199199E-2,-8.482818E-1,-4.4376656E-1,3.3957377E-1,2.8853068E-2,-8.682203E-1,-7.6387954E-1,-1.7071922E-1,4.7703516E-2,1.346039E-3,1.3280778E-2,-4.959459E-2,4.576092E-3,5.4926395E-2,7.306475E-2,3.0044198E-2,7.555519E-3,-2.4031417E-2,-4.6598976E-3,-4.8698105E-2,-1.5085408E-2,3.0991599E-2,4.2912673E-2,-9.591469E-4,2.4617193E-2,-3.1601503E-2,9.447559E-4,5.458336E-2,2.8174711E-2,-1.6553072E-2,1.14269685E-2,-3.7162032E-2,-1.1361748E-2,6.0214218E-2,-4.470852E-2,3.0167302E-2,3.4551993E-2,-2.3655212E-2,-2.2247301E-2,-5.389529E-2,-2.9932255E-2,2.4985E-2,-4.4253454E-2,4.7117822E-2,-5.2613016E-2,1.089506E-3,-3.880913E-3,-3.7570685E-2,4.445246E-3,5.1729895E-2,-1.8190918E-2,-5.7023447E-2,1.5506697E-2,-4.1983817E-2,1.6983388E-2,-3.3042945E-2],"categories":[],"categories_nodes":[],"categories_segments":[],"categories_sizes":[],"default_left":[0,0,0,0,0,0,0,0,0,0,0,0,0,0,0,0,0,0,0,0,0,0,0,0,0,0,0,0,0,0,0,0,0,0,0,0,0,0,0,0,0,0,0,0,0,0,0,0,0,0,0,0,0,0,0,0,0,0,0,0,0,0,0,0,0,0,0,0,0,0,0,0,0,0,0,0,0,0,0,0,0,0,0,0,0,0,0,0,0,0,0,0,0,0,0,0,0,0,0,0,0,0,0,0,0],"id":9,"left_children":[1,3,5,7,9,11,13,15,17,19,21,23,25,27,29,31,33,35,37,39,41,43,45,47,-1,49,-1,51,53,55,-1,57,59,61,63,65,67,69,71,73,75,77,79,-1,81,83,85,87,89,91,93,95,97,-1,99,101,103,-1,-1,-1,-1,-1,-1,-1,-1,-1,-1,-1,-1,-1,-1,-1,-1,-1,-1,-1,-1,-1,-1,-1,-1,-1,-1,-1,-1,-1,-1,-1,-1,-1,-1,-1,-1,-1,-1,-1,-1,-1,-1,-1,-1,-1,-1,-1,-1],"loss_changes":[3.276352E2,6.781009E1,1.9174103E1,4.54805E1,1.0052187E1,3.715744E0,6.8418636E0,2.1281235E1,1.9951443E1,1.3214314E1,2.089513E1,2.735691E0,2.671173E0,4.343264E0,2.6629658E0,1.2039591E1,4.6145935E0,5.2567196E0,9.652912E0,6.126198E0,4.593872E0,1.7841778E0,2.6116831E0,2.397747E0,0E0,2.354375E0,0E0,5.8790083E0,3.5476327E0,2.4052763E0,0E0,3.6651077E0,7.5820923E0,5.8739777E0,1.7237701E0,4.1994348E0,2.3527784E0,2.6248717E0,9.584549E0,5.8846846E0,1.2916584E0,5.1682754E0,2.953701E0,0E0,2.76006E0,4.2843585E0,2.6961656E0,1.4283447E0,2.8803506E0,5.29563E0,1.4665036E0,1.90453E0,3.6161206E0,0E0,1.2121496E0,1.8921347E0,3.3395064E0,0E0,0E0,0E0,0E0,0E0,0E0,0E0,0E0,0E0,0E0,0E0,0E0,0E0,0E0,0E0,0E0,0E0,0E0,0E0,0E0,0E0,0E0,0E0,0E0,0E0,0E0,0E0,0E0,0E0,0E0,0E0,0E0,0E0,0E0,0E0,0E0,0E0,0E0,0E0,0E0,0E0,0E0,0E0,0E0,0E0,0E0,0E0,0E0],"parents":[2147483647,0,0,1,1,2,2,3,3,4,4,5,5,6,6,7,7,8,8,9,9,10,10,11,11,12,12,13,13,14,14,15,15,16,16,17,17,18,18,19,19,20,20,21,21,22,22,23,23,25,25,27,27,28,28,29,29,31,31,32,32,33,33,34,34,35,35,36,36,37,37,38,38,39,39,40,40,41,41,42,42,44,44,45,45,46,46,47,47,48,48,49,49,50,50,51,51,52,52,54,54,55,55,56,56],"right_children":[2,4,6,8,10,12,14,16,18,20,22,24,26,28,30,32,34,36,38,40,42,44,46,48,-1,50,-1,52,54,56,-1,58,60,62,64,66,68,70,72,74,76,78,80,-1,82,84,86,88,90,92,94,96,98,-1,100,102,104,-1,-1,-1,-1,-1,-1,-1,-1,-1,-1,-1,-1,-1,-1,-1,-1,-1,-1,-1,-1,-1,-1,-1,-1,-1,-1,-1,-1,-1,-1,-1,-1,-1,-1,-1,-1,-1,-1,-1,-1,-1,-1,-1,-1,-1,-1,-1,-1],"split_conditions":[3.708072E-1,2.4205412E-1,9.447364E-1,-8.745664E-1,8.833469E-1,2.4205412E-1,1.5693889E0,3.7166853E-2,6.21197E-1,-1.240918E0,-1.01157434E-1,1.5857724E0,-1.4908377E0,1.5347862E0,1.3773354E0,-1.1595066E0,3.5738793E-1,1.3362778E0,8.3149505E-1,8.3149505E-1,1.3362778E0,5.4405344E-1,2.2636063E0,4.0093315E-1,1.9713221E-2,1.5693889E0,-5.512329E-2,1.2732534E0,6.1665505E-2,1.3794407E0,-5.7339173E-2,1.4683282E0,-3.145786E-1,-8.715616E-1,-9.152721E-1,5.0942856E-1,-5.8962625E-1,1.1819987E0,5.991356E-1,2.3630452E-1,4.0093315E-1,-1.5036606E0,-1.6010909E0,9.3209006E-2,8.3149505E-1,1.1171372E0,4.320999E-1,-3.4610292E-1,1.364249E0,-1.4679356E-1,-1.5431156E0,1.0317425E0,8.710367E-1,2.8853068E-2,1.2516841E0,9.7957915E-1,1.495583E0,4.7703516E-2,1.346039E-3,1.3280778E-2,-4.959459E-2,4.576092E-3,5.4926395E-2,7.306475E-2,3.0044198E-2,7.555519E-3,-2.4031417E-2,-4.6598976E-3,-4.8698105E-2,-1.5085408E-2,3.0991599E-2,4.2912673E-2,-9.591469E-4,2.4617193E-2,-3.1601503E-2,9.447559E-4,5.458336E-2,2.8174711E-2,-1.6553072E-2,1.14269685E-2,-3.7162032E-2,-1.1361748E-2,6.0214218E-2,-4.470852E-2,3.0167302E-2,3.4551993E-2,-2.3655212E-2,-2.2247301E-2,-5.389529E-2,-2.9932255E-2,2.4985E-2,-4.4253454E-2,4.7117822E-2,-5.2613016E-2,1.089506E-3,-3.880913E-3,-3.7570685E-2,4.445246E-3,5.1729895E-2,-1.8190918E-2,-5.7023447E-2,1.5506697E-2,-4.1983817E-2,1.6983388E-2,-3.3042945E-2],"split_indices":[15,9,18,5,18,9,15,18,18,5,5,19,0,4,19,5,18,17,16,16,17,0,2,17,0,15,0,18,5,18,0,19,18,19,5,5,5,18,19,0,17,0,19,0,16,0,0,18,5,19,0,3,0,0,18,18,18,0,0,0,0,0,0,0,0,0,0,0,0,0,0,0,0,0,0,0,0,0,0,0,0,0,0,0,0,0,0,0,0,0,0,0,0,0,0,0,0,0,0,0,0,0,0,0,0],"split_type":[0,0,0,0,0,0,0,0,0,0,0,0,0,0,0,0,0,0,0,0,0,0,0,0,0,0,0,0,0,0,0,0,0,0,0,0,0,0,0,0,0,0,0,0,0,0,0,0,0,0,0,0,0,0,0,0,0,0,0,0,0,0,0,0,0,0,0,0,0,0,0,0,0,0,0,0,0,0,0,0,0,0,0,0,0,0,0,0,0,0,0,0,0,0,0,0,0,0,0,0,0,0,0,0,0],"sum_hessian":[8.66481E2,5.375085E2,3.2897253E2,3.804086E2,1.570999E2,2.3785504E2,9.111749E1,1.8771924E2,1.9268936E2,1.311595E2,2.5940407E1,5.314057E1,1.8471448E2,4.882982E1,4.228767E1,6.535907E1,1.2236016E2,8.6097626E1,1.0659173E2,2.6605618E1,1.0455388E2,1.0156332E1,1.5784075E1,5.163635E1,1.5042223E0,1.1481442E1,1.7323303E2,3.670911E1,1.2120711E1,3.0496174E1,1.1791496E1,4.0918293E1,2.4440779E1,5.077511E1,7.158505E1,7.378107E1,1.2316559E1,1.6462502E1,9.012923E1,1.6878014E1,9.727604E0,6.4036064E1,4.051782E1,5.5821104E0,4.5742216E0,9.645968E0,6.138107E0,3.0303896E1,2.1332455E1,4.3475266E0,7.133916E0,1.6425201E1,2.0283907E1,1.2721744E0,1.08485365E1,1.9044054E1,1.1452121E1,3.6033092E1,4.885199E0,1.9147253E1,5.2935266E0,6.870238E0,4.3904873E1,6.718319E1,4.4018636E0,6.2146988E1,1.1634079E1,5.2193074E0,7.0972514E0,1.3513251E1,2.949249E0,7.530455E1,1.48246765E1,9.544038E0,7.333976E0,1.3147403E0,8.412864E0,6.3430767E0,5.7692986E1,2.958337E0,3.755948E1,1.6260561E0,2.9481654E0,7.9749365E0,1.6710314E0,3.4845872E0,2.6535196E0,6.5617948E0,2.3742102E1,1.939049E1,1.9419643E0,2.1211145E0,2.2264123E0,5.6094494E0,1.5244665E0,8.07134E0,8.353862E0,1.5736326E1,4.5475802E0,4.621854E0,6.2266827E0,1.0516003E0,1.7992453E1,5.7605767E0,5.6915436E0],"tree_param":{"num_deleted":"0","num_feature":"20","num_nodes":"105","size_leaf_vector":"1"}},{"base_weights":[-5.4402266E-2,4.096427E-1,-8.377978E-1,6.24986E-1,-1.1592666E-1,-9.891001E-1,-4.200207E-1,8.593513E-1,2.4383715E-1,-2.2527164E-1,4.0962964E-1,-6.198017E-1,-1.0879894E0,-2.9835188E-1,-9.233281E-1,4.5235905E-1,1.0837443E0,-1.7808893E-1,4.999039E-1,2.8928024E-1,-3.642193E-1,1.3436707E0,-2.7984443E-1,-6.746266E-1,2.9869357E-2,-3.4633368E-1,-1.1008573E0,4.519427E-2,-4.8295006E-1,-2.8205276E-1,-1.0065969E0,6.5076274E-1,-6.009814E-3,-4.6136584E-2,1.1060889E0,5.9448453E-3,-7.5398284E-1,-3.1593475E-1,6.807994E-1,-5.1913917E-2,7.913547E-1,-8.052554E-2,-5.895092E-1,9.328639E-2,7.757434E-1,-6.4282524E-3,-7.90297E-1,-8.745123E-1,-3.419515E-1,1.2202116E-2,-4.0454704E-2,-5.7165015E-2,-9.4072086E-1,-6.1254215E-1,3.0169052E-1,-9.441111E-1,-3.4533298E-1,-3.46234E-2,1.4345253E-2,-5.2485794E-1,-5.5837292E-2,2.1826908E-2,4.7217786E-2,-1.0858282E-2,6.355815E-2,4.4927966E-2,6.9289885E-2,1.1758529E-2,-2.0441836E-2,-4.3172862E-2,1.2202919E-2,3.5470051E-3,-5.797481E-2,4.1488614E-2,-7.137533E-3,1.0696826E-2,-4.2997394E-2,-1.2450032E-2,4.603076E-2,-1.0254642E-2,3.97779E-2,1.9882636E-2,-3.279425E-2,-2.4413494E-2,5.7485737E-2,-3.5048317E-2,2.1084486E-2,-5.270728E-2,4.6979784E-4,-4.5834118E-4,-5.0156172E-2,-3.319656E-2,1.0877631E-2,-1.5790166E-2,-5.0474096E-2,-4.006177E-2,1.0417397E-2,-1.8235972E-2,3.9027724E-2,-1.28861815E-2,-5.0471228E-2,5.380101E-3,-2.7153054E-2,6.3904324E-3,-4.2137813E-2],"categories":[],"categories_nodes":[],"categories_segments":[],"categories_sizes":[],"default_left":[0,0,0,0,0,0,0,0,0,0,0,0,0,0,0,0,0,0,0,0,0,0,0,0,0,0,0,0,0,0,0,0,0,0,0,0,0,0,0,0,0,0,0,0,0,0,0,0,0,0,0,0,0,0,0,0,0,0,0,0,0,0,0,0,0,0,0,0,0,0,0,0,0,0,0,0,0,0,0,0,0,0,0,0,0,0,0,0,0,0,0,0,0,0,0,0,0,0,0,0,0,0,0,0,0],"id":10,"left_children":[1,3,5,7,9,11,13,15,17,19,21,23,25,27,29,31,33,35,37,39,41,43,45,47,-1,49,51,53,55,57,59,61,63,-1,65,67,69,71,73,75,77,79,81,-1,83,85,87,89,91,-1,-1,-1,93,95,97,99,101,-1,-1,103,-1,-1,-1,-1,-1,-1,-1,-1,-1,-1,-1,-1,-1,-1,-1,-1,-1,-1,-1,-1,-1,-1,-1,-1,-1,-1,-1,-1,-1,-1,-1,-1,-1,-1,-1,-1,-1,-1,-1,-1,-1,-1,-1,-1,-1],"loss_changes":[3.092042E2,6.0535606E1,1.9583328E1,3.3656143E1,9.063773E0,7.780945E0,4.9820385E0,2.0913528E1,1.5835991E1,9.390815E0,1.7919552E1,3.8214664E0,1.3489838E0,4.5003247E0,5.831003E-1,7.734869E0,7.7616577E0,5.916748E0,1.3639853E1,4.866963E0,6.51661E0,2.033867E0,2.297799E0,2.9917774E0,0E0,1.4407885E0,1.3258362E-1,4.5032296E0,2.594657E0,9.588153E-1,1.5576458E-1,3.3198338E0,7.4688444E0,0E0,7.412918E0,4.209934E0,1.6876359E0,5.6929474E0,9.292088E0,3.988663E0,1.770328E0,5.2505674E0,4.0012684E0,0E0,4.0288076E0,3.7903163E0,1.2225435E0,3.3598347E0,3.7864144E0,0E0,0E0,0E0,1.5239601E0,1.3304446E0,6.375309E0,1.8816853E-1,3.3739686E0,0E0,0E0,1.0390267E0,0E0,0E0,0E0,0E0,0E0,0E0,0E0,0E0,0E0,0E0,0E0,0E0,0E0,0E0,0E0,0E0,0E0,0E0,0E0,0E0,0E0,0E0,0E0,0E0,0E0,0E0,0E0,0E0,0E0,0E0,0E0,0E0,0E0,0E0,0E0,0E0,0E0,0E0,0E0,0E0,0E0,0E0,0E0,0E0,0E0],"parents":[2147483647,0,0,1,1,2,2,3,3,4,4,5,5,6,6,7,7,8,8,9,9,10,10,11,11,12,12,13,13,14,14,15,15,16,16,17,17,18,18,19,19,20,20,21,21,22,22,23,23,25,25,26,26,27,27,28,28,29,29,30,30,31,31,32,32,34,34,35,35,36,36,37,37,38,38,39,39,40,40,41,41,42,42,44,44,45,45,46,46,47,47,48,48,52,52,53,53,54,54,55,55,56,56,59,59],"right_children":[2,4,6,8,10,12,14,16,18,20,22,24,26,28,30,32,34,36,38,40,42,44,46,48,-1,50,52,54,56,58,60,62,64,-1,66,68,70,72,74,76,78,80,82,-1,84,86,88,90,92,-1,-1,-1,94,96,98,100,102,-1,-1,104,-1,-1,-1,-1,-1,-1,-1,-1,-1,-1,-1,-1,-1,-1,-1,-1,-1,-1,-1,-1,-1,-1,-1,-1,-1,-1,-1,-1,-1,-1,-1,-1,-1,-1,-1,-1,-1,-1,-1,-1,-1,-1,-1,-1,-1],"split_conditions":[3.708072E-1,2.4205412E-1,9.447364E-1,-6.30332E-1,8.833469E-1,2.4205412E-1,1.6084834E0,1.7417893E-1,1.1104958E0,-1.240918E0,-1.01157434E-1,1.5857724E0,-1.6664125E0,-5.444111E-1,1.5693889E0,-1.0373893E0,-1.7116576E0,2.30748E-1,8.3149505E-1,8.3149505E-1,2.30748E-1,-4.87578E-2,7.3403764E-1,4.0093315E-1,2.9869357E-2,1.5347862E0,2.312905E-1,8.3149505E-1,1.1454968E0,1.3379613E0,2.30748E-1,5.5253208E-2,-7.117435E-1,-4.6136584E-2,5.5253208E-2,-4.22417E-1,1.4053739E0,3.3987388E-1,9.5719165E-1,9.109849E-1,4.0093315E-1,1.2768202E0,3.318852E-1,9.328639E-2,8.3149505E-1,9.814629E-2,8.710367E-1,-3.4539184E-1,3.768629E-1,1.2202116E-2,-4.0454704E-2,-5.7165015E-2,3.3250028E-1,1.4863663E0,-1.24671E0,-2.8450137E-1,9.338647E-2,-3.46234E-2,1.4345253E-2,2.4205412E-1,-5.5837292E-2,2.1826908E-2,4.7217786E-2,-1.0858282E-2,6.355815E-2,4.4927966E-2,6.9289885E-2,1.1758529E-2,-2.0441836E-2,-4.3172862E-2,1.2202919E-2,3.5470051E-3,-5.797481E-2,4.1488614E-2,-7.137533E-3,1.0696826E-2,-4.2997394E-2,-1.2450032E-2,4.603076E-2,-1.0254642E-2,3.97779E-2,1.9882636E-2,-3.279425E-2,-2.4413494E-2,5.7485737E-2,-3.5048317E-2,2.1084486E-2,-5.270728E-2,4.6979784E-4,-4.5834118E-4,-5.0156172E-2,-3.319656E-2,1.0877631E-2,-1.5790166E-2,-5.0474096E-2,-4.006177E-2,1.0417397E-2,-1.8235972E-2,3.9027724E-2,-1.28861815E-2,-5.0471228E-2,5.380101E-3,-2.7153054E-2,6.3904324E-3,-4.2137813E-2],"split_indices":[15,9,18,5,18,9,5,8,7,5,5,19,0,0,15,5,19,12,16,16,12,0,19,17,0,4,18,16,18,18,12,7,5,0,7,19,19,0,5,0,17,19,6,0,16,19,0,5,0,0,0,0,18,5,0,0,10,0,0,9,0,0,0,0,0,0,0,0,0,0,0,0,0,0,0,0,0,0,0,0,0,0,0,0,0,0,0,0,0,0,0,0,0,0,0,0,0,0,0,0,0,0,0,0,0],"split_type":[0,0,0,0,0,0,0,0,0,0,0,0,0,0,0,0,0,0,0,0,0,0,0,0,0,0,0,0,0,0,0,0,0,0,0,0,0,0,0,0,0,0,0,0,0,0,0,0,0,0,0,0,0,0,0,0,0,0,0,0,0,0,0,0,0,0,0,0,0,0,0,0,0,0,0,0,0,0,0,0,0,0,0,0,0,0,0,0,0,0,0,0,0,0,0,0,0,0,0,0,0,0,0,0,0],"sum_hessian":[8.486145E2,5.332315E2,3.15383E2,3.7811572E2,1.5511578E2,2.3052753E2,8.485546E1,2.3336613E2,1.4474959E2,1.2887415E2,2.6241632E1,5.0226448E1,1.8030109E2,6.961871E1,1.5236748E1,8.40097E1,1.4935643E2,5.478455E1,8.9965034E1,2.7171295E1,1.0170285E2,1.074134E1,1.5500292E1,4.8488186E1,1.7382641E0,3.5509646E0,1.7675012E2,2.4597237E1,4.5021473E1,2.255305E0,1.2981443E1,5.8338364E1,2.5671335E1,1.201146E0,1.4815529E2,4.2267227E1,1.251732E1,1.6192114E1,7.377292E1,1.671137E1,1.0459925E1,4.561726E1,5.608559E1,4.4060264E0,6.335314E0,1.0753133E1,4.7471595E0,2.9271723E1,1.9216461E1,1.7680178E0,1.7829467E0,1.3486545E2,4.1884674E1,6.51153E0,1.8085707E1,9.00038E0,3.6021095E1,1.1840874E0,1.0712177E0,3.488664E0,9.492779E0,3.5165905E1,2.3172455E1,2.2741442E1,2.9298944E0,8.746975E1,6.068554E1,2.7501675E1,1.4765554E1,1.1401541E1,1.1157789E0,1.17289E1,4.4632134E0,6.2465847E1,1.1307074E1,1.3127532E1,3.583838E0,1.053606E0,9.406319E0,4.0609093E1,5.0081677E0,3.2191036E0,5.2866486E1,1.3766472E0,4.958667E0,3.8576024E0,6.8955307E0,3.3302102E0,1.416949E0,3.9261727E0,2.534555E1,1.20787945E1,7.1376667E0,4.7062154E0,3.717846E1,5.3139796E0,1.1975503E0,7.661693E0,1.0424013E1,1.2117618E0,7.7886176E0,1.108486E1,2.4936235E1,1.3385298E0,2.150134E0],"tree_param":{"num_deleted":"0","num_feature":"20","num_nodes":"105","size_leaf_vector":"1"}},{"base_weights":[-5.7875857E-2,3.75135E-1,-7.963094E-1,5.7476044E-1,-1.563294E-1,-5.231675E-1,-1.0469987E0,8.943029E-1,2.5428444E-1,-3.6029896E-1,2.8451788E-1,-8.7062633E-1,-1.52835E-1,-5.6007296E-2,-6.764231E-1,6.868352E-1,1.3336445E0,1.0061066E-1,7.8728133E-1,-1.9827585E-1,-8.128449E-1,7.9330766E-1,-1.2950283E-1,-5.698486E-1,-9.6881187E-1,7.0864856E-2,-3.306039E-1,-3.9209983E-1,-5.5483617E-2,4.768661E-1,9.838104E-1,1.4009445E0,3.7737426E-1,-3.64212E-1,2.1981028E-1,-2.476355E-1,9.2496026E-1,5.9871703E-1,-2.83862E-1,3.3960652E-1,-9.65013E-1,1.491774E0,5.50646E-1,-5.971628E-1,1.3958095E-1,2.5285605E-2,-6.6871786E-1,-8.988328E-2,-1.0076435E0,-1.0537699E-1,1.0781847E0,-4.4043896E-1,3.7452495E-1,-6.9351494E-1,-2.4607023E-2,-4.1244652E-2,2.7614484E-2,-8.613662E-3,5.2532364E-2,7.337509E-2,3.9181735E-2,-3.660844E-2,5.3823408E-2,-2.3613304E-2,4.6238184E-2,2.2074064E-2,-5.5395593E-3,-5.1550247E-2,2.157741E-2,4.948734E-2,-3.6224242E-2,-1.3556029E-2,7.4610524E-2,8.0188364E-4,-2.7060939E-2,4.8801508E-2,-1.945958E-2,-7.158555E-3,-5.3504553E-2,8.726087E-2,1.9825632E-2,3.713199E-2,-9.270078E-3,-4.6405755E-2,5.7579586E-3,2.2777604E-2,-3.7905104E-2,-4.64374E-2,-1.0739281E-2,1.6511722E-2,-1.98226E-2,-3.2940954E-2,-5.4560985E-2,4.2216722E-2,-9.194951E-3,8.7117E-2,-1.7379923E-2,-3.51766E-2,-9.958581E-3,-2.6871193E-2,4.9096532E-2,-4.3731403E-2,-6.2637995E-3,1.6208516E-2,-3.343306E-2],"categories":[],"categories_nodes":[],"categories_segments":[],"categories_sizes":[],"default_left":[0,0,0,0,0,0,0,0,0,0,0,0,0,0,0,0,0,0,0,0,0,0,0,0,0,0,0,0,0,0,0,0,0,0,0,0,0,0,0,0,0,0,0,0,0,0,0,0,0,0,0,0,0,0,0,0,0,0,0,0,0,0,0,0,0,0,0,0,0,0,0,0,0,0,0,0,0,0,0,0,0,0,0,0,0,0,0,0,0,0,0,0,0,0,0,0,0,0,0,0,0,0,0,0,0],"id":11,"left_children":[1,3,5,7,9,11,13,15,17,19,21,23,25,-1,27,29,31,33,35,37,39,41,43,45,47,49,51,53,-1,55,57,59,61,63,65,67,69,71,73,75,77,79,81,83,85,-1,87,89,91,93,95,97,99,101,103,-1,-1,-1,-1,-1,-1,-1,-1,-1,-1,-1,-1,-1,-1,-1,-1,-1,-1,-1,-1,-1,-1,-1,-1,-1,-1,-1,-1,-1,-1,-1,-1,-1,-1,-1,-1,-1,-1,-1,-1,-1,-1,-1,-1,-1,-1,-1,-1,-1,-1],"loss_changes":[2.7014655E2,5.660215E1,2.0834595E1,3.9447906E1,1.3251513E1,1.9353764E1,3.628952E0,1.6730621E1,1.5878948E1,7.2016354E0,9.964245E0,1.7490883E0,2.9868903E0,0E0,3.1620493E0,7.8593597E0,3.3994675E0,8.522667E0,6.420906E0,5.3039207E0,4.9136963E0,2.7622576E0,3.4396114E0,2.6356316E0,1.8656349E0,6.117933E0,3.3945174E0,2.1071937E0,0E0,8.328386E0,4.3828773E0,1.1777725E0,4.962738E0,4.820731E0,8.9822445E0,3.5793111E0,4.83815E0,6.327038E0,5.3067875E0,2.1376936E0,1.8641853E0,6.5892315E-1,2.5792408E0,2.4479597E0,5.377255E0,0E0,2.1868076E0,5.8467406E-1,8.7849045E-1,2.3697846E0,5.458956E0,2.1792402E0,3.9401245E0,9.709625E-1,2.3908224E0,0E0,0E0,0E0,0E0,0E0,0E0,0E0,0E0,0E0,0E0,0E0,0E0,0E0,0E0,0E0,0E0,0E0,0E0,0E0,0E0,0E0,0E0,0E0,0E0,0E0,0E0,0E0,0E0,0E0,0E0,0E0,0E0,0E0,0E0,0E0,0E0,0E0,0E0,0E0,0E0,0E0,0E0,0E0,0E0,0E0,0E0,0E0,0E0,0E0,0E0],"parents":[2147483647,0,0,1,1,2,2,3,3,4,4,5,5,6,6,7,7,8,8,9,9,10,10,11,11,12,12,14,14,15,15,16,16,17,17,18,18,19,19,20,20,21,21,22,22,23,23,24,24,25,25,26,26,27,27,29,29,30,30,31,31,32,32,33,33,34,34,35,35,36,36,37,37,38,38,39,39,40,40,41,41,42,42,43,43,44,44,46,46,47,47,48,48,49,49,50,50,51,51,52,52,53,53,54,54],"right_children":[2,4,6,8,10,12,14,16,18,20,22,24,26,-1,28,30,32,34,36,38,40,42,44,46,48,50,52,54,-1,56,58,60,62,64,66,68,70,72,74,76,78,80,82,84,86,-1,88,90,92,94,96,98,100,102,104,-1,-1,-1,-1,-1,-1,-1,-1,-1,-1,-1,-1,-1,-1,-1,-1,-1,-1,-1,-1,-1,-1,-1,-1,-1,-1,-1,-1,-1,-1,-1,-1,-1,-1,-1,-1,-1,-1,-1,-1,-1,-1,-1,-1,-1,-1,-1,-1,-1,-1],"split_conditions":[3.708072E-1,2.30748E-1,1.5693889E0,-8.745664E-1,4.8514453E-1,1.1318187E0,1.2732534E0,1.0609769E0,1.0276953E0,-5.8962625E-1,-3.4539184E-1,2.4205412E-1,-2.4159408E-1,-5.6007296E-2,1.3910902E0,5.5253208E-2,1.5575535E0,-3.3117035E-1,8.3149505E-1,3.318852E-1,-1.5323173E0,-1.0982605E0,-6.7165345E-1,-9.915226E-1,-1.5554453E0,-4.0730503E-1,1.3362778E0,3.163175E-2,-5.5483617E-2,-1.5431156E0,-1.333313E0,1.5347862E0,1.6093383E0,9.978974E-1,-4.3564272E-1,1.1819987E0,1.4275568E0,8.3149505E-1,-7.974977E-1,5.5253208E-2,-1.5008898E0,-4.8008105E-1,1.1819987E0,2.2636063E0,1.5347862E0,2.5285605E-2,1.5347862E0,8.439157E-2,-9.726059E-1,-4.2680332E-1,2.4205412E-1,1.1355417E0,2.0959768E-2,1.3344841E0,1.4806504E0,-4.1244652E-2,2.7614484E-2,-8.613662E-3,5.2532364E-2,7.337509E-2,3.9181735E-2,-3.660844E-2,5.3823408E-2,-2.3613304E-2,4.6238184E-2,2.2074064E-2,-5.5395593E-3,-5.1550247E-2,2.157741E-2,4.948734E-2,-3.6224242E-2,-1.3556029E-2,7.4610524E-2,8.0188364E-4,-2.7060939E-2,4.8801508E-2,-1.945958E-2,-7.158555E-3,-5.3504553E-2,8.726087E-2,1.9825632E-2,3.713199E-2,-9.270078E-3,-4.6405755E-2,5.7579586E-3,2.2777604E-2,-3.7905104E-2,-4.64374E-2,-1.0739281E-2,1.6511722E-2,-1.98226E-2,-3.2940954E-2,-5.4560985E-2,4.2216722E-2,-9.194951E-3,8.7117E-2,-1.7379923E-2,-3.51766E-2,-9.958581E-3,-2.6871193E-2,4.9096532E-2,-4.3731403E-2,-6.2637995E-3,1.6208516E-2,-3.343306E-2],"split_indices":[15,12,15,5,18,14,18,19,18,5,5,9,0,0,19,7,0,18,16,6,19,0,0,18,0,0,17,0,0,0,18,4,0,5,19,18,18,16,19,7,18,19,18,2,4,0,4,19,19,5,9,18,5,19,18,0,0,0,0,0,0,0,0,0,0,0,0,0,0,0,0,0,0,0,0,0,0,0,0,0,0,0,0,0,0,0,0,0,0,0,0,0,0,0,0,0,0,0,0,0,0,0,0,0,0],"split_type":[0,0,0,0,0,0,0,0,0,0,0,0,0,0,0,0,0,0,0,0,0,0,0,0,0,0,0,0,0,0,0,0,0,0,0,0,0,0,0,0,0,0,0,0,0,0,0,0,0,0,0,0,0,0,0,0,0,0,0,0,0,0,0,0,0,0,0,0,0,0,0,0,0,0,0,0,0,0,0,0,0,0,0,0,0,0,0,0,0,0,0,0,0,0,0,0,0,0,0,0,0,0,0,0,0],"sum_hessian":[8.429344E2,5.316636E2,3.1127078E2,3.8643262E2,1.4523094E2,1.5044183E2,1.6082896E2,1.9260155E2,1.9383109E2,9.941616E1,4.581478E1,7.692097E1,7.352087E1,1.3262723E2,2.8201729E1,1.3256467E2,6.0036892E1,1.5137529E2,4.245579E1,7.426537E1,2.5150785E1,2.0143877E1,2.5670902E1,2.0604805E1,5.6316162E1,3.2821053E1,4.0699814E1,1.817757E1,1.0024157E1,7.918474E1,5.337992E1,5.5655018E1,4.3818717E0,3.0476345E1,1.2089894E2,4.8911242E0,3.7564667E1,6.6203203E0,6.764505E1,2.7898638E0,2.2360922E1,3.8666725E0,1.6277205E1,8.930574E0,1.6740328E1,1.388196E0,1.9216608E1,2.5230584E0,5.3793106E1,2.8695793E1,4.1252604E0,3.5539368E1,5.1604457E0,9.499222E0,8.6783495E0,3.792472E0,7.5392265E1,2.8311799E0,5.054874E1,4.8995182E1,6.6598372E0,1.6754411E0,2.7064307E0,2.870374E1,1.7726064E0,7.217178E1,4.8727158E1,2.0307987E0,2.8603256E0,3.6529808E1,1.034858E0,3.7075205E0,2.9127998E0,3.1673447E1,3.5971607E1,1.3082237E0,1.4816402E0,2.8027134E0,1.9558208E1,2.6581511E0,1.2085214E0,1.2902663E1,3.3745415E0,5.890734E0,3.0398405E0,1.2746332E1,3.9939957E0,1.1552739E1,7.663869E0,1.0318413E0,1.4912171E0,1.2114265E1,4.167884E1,1.4465971E0,2.7249197E1,2.6628392E0,1.4624212E0,1.608418E1,1.9455187E1,2.1090968E0,3.0513487E0,6.7944546E0,2.7047672E0,5.951877E0,2.7264721E0],"tree_param":{"num_deleted":"0","num_feature":"20","num_nodes":"105","size_leaf_vector":"1"}},{"base_weights":[-5.3245362E-2,3.5935333E-1,-7.8130174E-1,-4.1374143E-2,6.057757E-1,-5.404947E-1,-1.0188904E0,4.0825015E-1,-3.244557E-1,9.576281E-1,2.9198825E-1,-9.0058315E-1,-1.6397493E-1,-7.820472E-1,-5.3519964E-2,1.2843446E-1,6.9082284E-1,-7.134151E-1,-1.7938739E-1,-5.1910967E-1,1.0199823E0,-8.065635E-1,3.4668413E-1,-1.1130923E0,-7.8700614E-1,-2.1208125E-1,1.0652087E0,-9.158038E-1,-1.17381364E-1,2.7356679E-2,6.368675E-2,-3.3102286E-1,7.703142E-1,-1.7697823E-1,-8.1227195E-1,4.679399E-3,-5.3052706E-1,6.871168E-2,-8.7111557E-1,6.996928E-1,1.1664431E0,-9.562307E-1,-8.137025E-3,6.007279E-1,8.150746E-2,-1.4231387E-2,-5.7254583E-2,-9.74742E-1,-5.5090606E-1,-1.1191711E-1,-5.766844E-1,-8.858175E-3,8.9629E-2,-2.5560933E-1,-5.0088327E-2,6.9163966E-1,-4.4579007E-2,1.2685008E-2,-2.3153802E-2,8.589886E-3,-3.8383406E-2,4.182618E-2,-2.3914777E-2,1.934975E-2,-4.4357285E-2,1.257243E-2,-4.321186E-2,9.74265E-3,-1.8464323E-2,5.154574E-3,-3.7601136E-2,5.7428498E-2,-4.352471E-2,-1.1784031E-2,-4.9697366E-2,5.74282E-2,1.5266135E-2,6.4299695E-2,4.2714305E-2,-1.0096939E-2,-5.311832E-2,6.0185404E-3,3.6666594E-2,-1.2014607E-2,1.9307276E-2,1.3945158E-2,-5.1828872E-2,-3.716186E-2,-2.30124E-3,-1.7356798E-2,7.4362787E-3,-4.811288E-2,1.2378744E-2,-3.8657248E-2,1.867437E-2,4.2151093E-2,1.04260845E-2],"categories":[],"categories_nodes":[],"categories_segments":[],"categories_sizes":[],"default_left":[0,0,0,0,0,0,0,0,0,0,0,0,0,0,0,0,0,0,0,0,0,0,0,0,0,0,0,0,0,0,0,0,0,0,0,0,0,0,0,0,0,0,0,0,0,0,0,0,0,0,0,0,0,0,0,0,0,0,0,0,0,0,0,0,0,0,0,0,0,0,0,0,0,0,0,0,0,0,0,0,0,0,0,0,0,0,0,0,0,0,0,0,0,0,0,0,0],"id":12,"left_children":[1,3,5,7,9,11,13,15,17,19,21,23,25,27,-1,29,31,33,35,37,39,41,43,45,47,49,51,53,55,57,-1,59,61,63,65,67,69,71,73,75,77,79,-1,81,83,-1,-1,85,87,89,91,-1,-1,93,-1,95,-1,-1,-1,-1,-1,-1,-1,-1,-1,-1,-1,-1,-1,-1,-1,-1,-1,-1,-1,-1,-1,-1,-1,-1,-1,-1,-1,-1,-1,-1,-1,-1,-1,-1,-1,-1,-1,-1,-1,-1,-1],"loss_changes":[2.5313055E2,5.314569E1,1.6886917E1,2.6323364E1,3.6504234E1,2.0663479E1,1.0207367E0,6.232275E0,7.0284843E0,1.4951096E1,1.0947822E1,1.0123482E0,4.735218E0,2.6409988E0,0E0,4.757352E0,3.467348E0,1.6655045E0,6.059416E0,1.5099096E0,6.2489624E0,6.8476105E-1,1.1391663E1,3.325119E-1,1.8742905E0,2.6460147E0,3.063068E0,1.1961899E0,4.579007E0,4.4534917E0,0E0,9.121481E-1,3.458353E0,2.9817214E0,1.7943401E0,4.5150375E0,4.601943E0,4.601945E0,1.13564014E-1,8.457701E0,2.702362E0,3.3555746E-1,0E0,5.426449E0,8.351984E0,0E0,0E0,2.5375175E0,2.5289917E0,3.6973696E0,5.245321E0,0E0,0E0,1.685709E0,0E0,9.1643095E-2,0E0,0E0,0E0,0E0,0E0,0E0,0E0,0E0,0E0,0E0,0E0,0E0,0E0,0E0,0E0,0E0,0E0,0E0,0E0,0E0,0E0,0E0,0E0,0E0,0E0,0E0,0E0,0E0,0E0,0E0,0E0,0E0,0E0,0E0,0E0,0E0,0E0,0E0,0E0,0E0,0E0],"parents":[2147483647,0,0,1,1,2,2,3,3,4,4,5,5,6,6,7,7,8,8,9,9,10,10,11,11,12,12,13,13,15,15,16,16,17,17,18,18,19,19,20,20,21,21,22,22,23,23,24,24,25,25,26,26,27,27,28,28,29,29,31,31,32,32,33,33,34,34,35,35,36,36,37,37,38,38,39,39,40,40,41,41,43,43,44,44,47,47,48,48,49,49,50,50,53,53,55,55],"right_children":[2,4,6,8,10,12,14,16,18,20,22,24,26,28,-1,30,32,34,36,38,40,42,44,46,48,50,52,54,56,58,-1,60,62,64,66,68,70,72,74,76,78,80,-1,82,84,-1,-1,86,88,90,92,-1,-1,94,-1,96,-1,-1,-1,-1,-1,-1,-1,-1,-1,-1,-1,-1,-1,-1,-1,-1,-1,-1,-1,-1,-1,-1,-1,-1,-1,-1,-1,-1,-1,-1,-1,-1,-1,-1,-1,-1,-1,-1,-1,-1,-1],"split_conditions":[3.708072E-1,1.03533916E-1,1.5693889E0,-1.1595066E0,-7.524492E-1,1.1318187E0,2.4205412E-1,8.3149505E-1,-1.3216988E0,1.7417893E-1,1.7417893E-1,-1.4660472E0,1.4545735E0,1.2625364E0,-5.3519964E-2,1.1354446E0,-5.3441155E-1,-5.3441155E-1,-3.8609758E-1,9.9433625E-1,3.5738793E-1,4.7021192E-1,-4.22417E-1,-1.5554453E0,4.0093315E-1,9.77072E-1,-6.7103773E-1,-3.4610292E-1,1.3641098E0,-1.240918E0,6.368675E-2,2.4205412E-1,-1.6193433E-1,8.3149505E-1,-1.612655E0,-3.394662E-1,-7.9076225E-1,-3.930026E-1,1.7321932E-1,-1.240918E0,-9.5597786E-1,1.4501333E-1,-8.137025E-3,8.3149505E-1,1.0177402E0,-1.4231387E-2,-5.7254583E-2,-1.5323173E0,3.042943E-1,9.9433625E-1,1.288186E0,-8.858175E-3,8.9629E-2,-4.87578E-2,-5.0088327E-2,2.7575952E-1,-4.4579007E-2,1.2685008E-2,-2.3153802E-2,8.589886E-3,-3.8383406E-2,4.182618E-2,-2.3914777E-2,1.934975E-2,-4.4357285E-2,1.257243E-2,-4.321186E-2,9.74265E-3,-1.8464323E-2,5.154574E-3,-3.7601136E-2,5.7428498E-2,-4.352471E-2,-1.1784031E-2,-4.9697366E-2,5.74282E-2,1.5266135E-2,6.4299695E-2,4.2714305E-2,-1.0096939E-2,-5.311832E-2,6.0185404E-3,3.6666594E-2,-1.2014607E-2,1.9307276E-2,1.3945158E-2,-5.1828872E-2,-3.716186E-2,-2.30124E-3,-1.7356798E-2,7.4362787E-3,-4.811288E-2,1.2378744E-2,-3.8657248E-2,1.867437E-2,4.2151093E-2,1.04260845E-2],"split_indices":[15,18,15,5,5,14,9,16,18,8,8,18,19,19,0,13,17,17,5,1,18,18,19,0,17,0,5,18,19,5,0,9,18,16,0,18,18,0,18,5,5,18,0,16,18,0,0,19,18,1,18,0,0,0,0,0,0,0,0,0,0,0,0,0,0,0,0,0,0,0,0,0,0,0,0,0,0,0,0,0,0,0,0,0,0,0,0,0,0,0,0,0,0,0,0,0,0],"split_type":[0,0,0,0,0,0,0,0,0,0,0,0,0,0,0,0,0,0,0,0,0,0,0,0,0,0,0,0,0,0,0,0,0,0,0,0,0,0,0,0,0,0,0,0,0,0,0,0,0,0,0,0,0,0,0,0,0,0,0,0,0,0,0,0,0,0,0,0,0,0,0,0,0,0,0,0,0,0,0,0,0,0,0,0,0,0,0,0,0,0,0,0,0,0,0,0,0],"sum_hessian":[8.407241E2,5.3693994E2,3.037842E2,2.0477339E2,3.3216653E2,1.524967E2,1.5128749E2,7.894355E1,1.2582984E2,1.556185E2,1.7654805E2,7.723775E1,7.525896E1,2.9915533E1,1.2137196E2,4.03961E1,3.8547447E1,3.3117336E1,9.27125E1,6.007914E0,1.4961058E2,7.7213106E0,1.6882674E2,2.3837008E1,5.340074E1,7.3220795E1,2.038167E0,2.458936E1,5.3261743E0,3.8060944E1,2.3351588E0,2.553858E0,3.5993587E1,5.587512E0,2.7529825E1,6.1474403E1,3.1238098E1,2.5516555E0,3.4562585E0,4.875888E1,1.008517E2,5.871213E0,1.8500979E0,8.5577065E1,8.324967E1,1.2544374E0,2.2582571E1,2.8004417E1,2.5396322E1,5.8465927E1,1.4754865E1,1.031968E0,1.0061989E0,3.2906482E0,2.129871E1,2.6566598E0,2.6695144E0,2.6372337E1,1.1688605E1,1.4688959E0,1.0849621E0,3.4494503E1,1.4990859E0,3.3679497E0,2.2195623E0,1.1034566E0,2.6426369E1,4.106864E1,2.0405762E1,8.229903E0,2.3008196E1,1.0832572E0,1.4683983E0,1.0326848E0,2.4235735E0,2.1909328E1,2.6849554E1,7.066756E1,3.0184145E1,1.0822755E0,4.7889376E0,1.8925888E1,6.665118E1,4.058722E1,4.2662453E1,1.1513644E0,2.6853054E1,1.804869E1,7.3476324E0,3.0557365E1,2.790856E1,9.93843E0,4.816435E0,1.6797779E0,1.6108704E0,1.4555963E0,1.2010634E0],"tree_param":{"num_deleted":"0","num_feature":"20","num_nodes":"97","size_leaf_vector":"1"}},{"base_weights":[-5.2510317E-2,3.220899E-1,-7.5221825E-1,5.170662E-1,-2.1602096E-1,-8.984962E-1,-4.141396E-1,8.428582E-1,3.357746E-1,-3.2217443E-1,3.7309393E-1,-6.9961697E-1,-1.0656193E0,-7.651072E-2,-7.251272E-1,2.859176E-1,9.294293E-1,-1.7907341E-1,5.10037E-1,-1.1203523E-1,-7.4381787E-1,7.6861435E-1,-4.8132244E-1,-7.9036057E-1,-1.4202443E-1,-1.086549E0,-6.7992413E-1,2.259326E-1,-4.6806952E-1,-9.9071455E-1,-4.3193066E-1,1.0674752E-1,1.0445644E0,6.569831E-1,1.0952134E0,2.8078148E-1,-4.6924344E-1,6.9264066E-1,2.1124105E-1,9.940263E-2,-4.6984154E-1,-4.323213E-1,-9.837104E-1,5.6352925E-2,1.2074462E0,-6.326193E-1,1.3184795E-2,-5.931023E-1,-1.0178704E0,-6.108859E-1,4.3949708E-1,-6.33244E-1,-5.511556E-2,-5.0400693E-2,2.124204E-2,7.213877E-2,1.0850528E0,-8.068402E-1,1.7780902E-2,-4.7630304E-1,-5.4195542E-2,1.3987496E-1,-6.3244766E-1,1.4562324E-2,-2.0689163E-2,1.7885266E-2,6.3979395E-2,4.4372607E-2,1.365913E-2,3.6746807E-2,6.610413E-2,6.615696E-3,8.575898E-2,-1.6574133E-2,-5.1360916E-2,2.1345614E-2,5.3908426E-2,2.5457978E-2,-3.6826774E-3,-3.3606384E-3,3.84093E-2,-1.4131697E-3,-3.460073E-2,-3.9566595E-2,-3.3075733E-3,-6.2007727E-3,-5.487143E-2,5.5295624E-2,-4.126601E-2,1.8893799E-2,7.308599E-2,-4.5077883E-2,-3.0818656E-3,-3.642194E-2,1.7911848E-2,-1.17080575E-2,-5.293054E-2,1.5927855E-2,-3.9383665E-2,5.8133613E-2,-8.070664E-3,1.6198617E-3,-4.494626E-2,-2.1983276E-3,6.322627E-2,9.134523E-3,7.187159E-2,1.5151466E-2,-4.7325328E-2,-1.7411439E-2,3.381636E-2,-4.4658024E-2,7.944451E-3,-3.9819382E-2,2.8915007E-2,-1.47722885E-2,-4.1797306E-2],"categories":[],"categories_nodes":[],"categories_segments":[],"categories_sizes":[],"default_left":[0,0,0,0,0,0,0,0,0,0,0,0,0,0,0,0,0,0,0,0,0,0,0,0,0,0,0,0,0,0,0,0,0,0,0,0,0,0,0,0,0,0,0,0,0,0,0,0,0,0,0,0,0,0,0,0,0,0,0,0,0,0,0,0,0,0,0,0,0,0,0,0,0,0,0,0,0,0,0,0,0,0,0,0,0,0,0,0,0,0,0,0,0,0,0,0,0,0,0,0,0,0,0,0,0,0,0,0,0,0,0,0,0,0,0,0,0],"id":13,"left_children":[1,3,5,7,9,11,13,15,17,19,21,23,25,27,29,31,33,35,37,39,41,43,45,47,49,51,53,55,57,59,61,63,65,67,69,71,73,75,77,79,81,83,85,87,89,91,-1,93,95,97,99,101,-1,-1,-1,103,105,107,109,111,-1,113,115,-1,-1,-1,-1,-1,-1,-1,-1,-1,-1,-1,-1,-1,-1,-1,-1,-1,-1,-1,-1,-1,-1,-1,-1,-1,-1,-1,-1,-1,-1,-1,-1,-1,-1,-1,-1,-1,-1,-1,-1,-1,-1,-1,-1,-1,-1,-1,-1,-1,-1,-1,-1,-1,-1],"loss_changes":[2.2011586E2,5.7508255E1,1.4107895E1,2.3451752E1,9.26329E0,6.0189056E0,9.424009E0,6.6293564E0,2.3404314E1,1.094058E1,8.07015E0,4.7371445E0,1.3851929E-1,5.3643813E0,3.2223835E0,2.6998668E0,4.8507004E0,8.998571E0,1.0460144E1,6.4176836E0,2.6538467E0,4.920678E0,1.0488534E0,3.085659E0,4.2583313E0,2.6550293E-2,3.4243171E0,3.3210866E0,3.2530303E0,6.2586784E-1,2.8463635E0,1.8343307E0,1.6179085E-1,4.105377E0,5.1725388E0,5.3811474E0,2.8199692E0,1.1855637E1,6.4181395E0,6.041885E0,3.0663037E0,2.538892E0,2.063017E0,7.513992E0,1.5205421E0,9.883871E-1,0E0,6.2385807E0,9.264641E-1,1.6508543E0,3.278953E0,1.047368E0,0E0,0E0,0E0,3.224929E0,9.5686436E-1,2.0872602E0,2.4198086E0,1.5818222E0,0E0,3.360139E0,9.86743E-1,0E0,0E0,0E0,0E0,0E0,0E0,0E0,0E0,0E0,0E0,0E0,0E0,0E0,0E0,0E0,0E0,0E0,0E0,0E0,0E0,0E0,0E0,0E0,0E0,0E0,0E0,0E0,0E0,0E0,0E0,0E0,0E0,0E0,0E0,0E0,0E0,0E0,0E0,0E0,0E0,0E0,0E0,0E0,0E0,0E0,0E0,0E0,0E0,0E0,0E0,0E0,0E0,0E0,0E0],"parents":[2147483647,0,0,1,1,2,2,3,3,4,4,5,5,6,6,7,7,8,8,9,9,10,10,11,11,12,12,13,13,14,14,15,15,16,16,17,17,18,18,19,19,20,20,21,21,22,22,23,23,24,24,25,25,26,26,27,27,28,28,29,29,30,30,31,31,32,32,33,33,34,34,35,35,36,36,37,37,38,38,39,39,40,40,41,41,42,42,43,43,44,44,45,45,47,47,48,48,49,49,50,50,51,51,55,55,56,56,57,57,58,58,59,59,61,61,62,62],"right_children":[2,4,6,8,10,12,14,16,18,20,22,24,26,28,30,32,34,36,38,40,42,44,46,48,50,52,54,56,58,60,62,64,66,68,70,72,74,76,78,80,82,84,86,88,90,92,-1,94,96,98,100,102,-1,-1,-1,104,106,108,110,112,-1,114,116,-1,-1,-1,-1,-1,-1,-1,-1,-1,-1,-1,-1,-1,-1,-1,-1,-1,-1,-1,-1,-1,-1,-1,-1,-1,-1,-1,-1,-1,-1,-1,-1,-1,-1,-1,-1,-1,-1,-1,-1,-1,-1,-1,-1,-1,-1,-1,-1,-1,-1,-1,-1,-1,-1],"split_conditions":[3.708072E-1,2.30748E-1,9.447364E-1,-1.0780951E0,1.0758114E0,1.5693889E0,1.046164E0,-1.1455979E0,1.7417893E-1,-6.30332E-1,5.0942856E-1,5.6312585E-1,2.2636063E0,5.6784306E-2,9.9433625E-1,2.8054994E-3,-3.4177743E-2,3.318852E-1,-1.01157434E-1,2.6293662E-1,1.0558916E-1,-7.2837E-1,1.3235433E0,-2.1345106E-1,4.0093315E-1,-1.6270132E0,7.891676E-1,-1.6169772E-1,1.2732534E0,-1.0691625E0,1.0317425E0,1.0317425E0,1.3837662E-1,3.3987388E-1,1.1243004E-1,-3.5937634E-1,-5.97174E-3,8.0868393E-1,9.338647E-2,5.5253208E-2,-1.240918E0,4.0093315E-1,-1.5008898E0,-4.0654618E-1,-5.7583505E-1,1.3794407E0,1.3184795E-2,-3.6634007E-1,-1.5554453E0,6.062644E-1,-1.3703834E-1,1.0317425E0,-5.511556E-2,-5.0400693E-2,2.124204E-2,1.364249E0,1.2516841E0,-2.639804E-1,1.1314397E0,1.350355E0,-5.4195542E-2,2.30748E-1,2.4205412E-1,1.4562324E-2,-2.0689163E-2,1.7885266E-2,6.3979395E-2,4.4372607E-2,1.365913E-2,3.6746807E-2,6.610413E-2,6.615696E-3,8.575898E-2,-1.6574133E-2,-5.1360916E-2,2.1345614E-2,5.3908426E-2,2.5457978E-2,-3.6826774E-3,-3.3606384E-3,3.84093E-2,-1.4131697E-3,-3.460073E-2,-3.9566595E-2,-3.3075733E-3,-6.2007727E-3,-5.487143E-2,5.5295624E-2,-4.126601E-2,1.8893799E-2,7.308599E-2,-4.5077883E-2,-3.0818656E-3,-3.642194E-2,1.7911848E-2,-1.17080575E-2,-5.293054E-2,1.5927855E-2,-3.9383665E-2,5.8133613E-2,-8.070664E-3,1.6198617E-3,-4.494626E-2,-2.1983276E-3,6.322627E-2,9.134523E-3,7.187159E-2,1.5151466E-2,-4.7325328E-2,-1.7411439E-2,3.381636E-2,-4.4658024E-2,7.944451E-3,-3.9819382E-2,2.8915007E-2,-1.47722885E-2,-4.1797306E-2],"split_indices":[15,12,18,5,18,15,19,19,8,5,5,18,2,0,1,14,18,6,5,0,11,0,5,19,17,19,0,0,18,0,3,3,18,0,19,18,18,18,10,7,5,17,18,19,19,18,0,19,0,18,0,3,0,0,0,5,18,5,0,19,0,12,9,0,0,0,0,0,0,0,0,0,0,0,0,0,0,0,0,0,0,0,0,0,0,0,0,0,0,0,0,0,0,0,0,0,0,0,0,0,0,0,0,0,0,0,0,0,0,0,0,0,0,0,0,0,0],"split_type":[0,0,0,0,0,0,0,0,0,0,0,0,0,0,0,0,0,0,0,0,0,0,0,0,0,0,0,0,0,0,0,0,0,0,0,0,0,0,0,0,0,0,0,0,0,0,0,0,0,0,0,0,0,0,0,0,0,0,0,0,0,0,0,0,0,0,0,0,0,0,0,0,0,0,0,0,0,0,0,0,0,0,0,0,0,0,0,0,0,0,0,0,0,0,0,0,0,0,0,0,0,0,0,0,0,0,0,0,0,0,0,0,0,0,0,0,0],"sum_hessian":[8.378575E2,5.460567E2,2.918008E2,4.0085287E2,1.452038E2,2.0251857E2,8.928226E1,1.4200749E2,2.588454E2,1.2341804E2,2.1785759E1,9.484168E1,1.0767688E2,4.3404964E1,4.5877296E1,1.9682981E1,1.2232452E2,6.5449905E1,1.9339548E2,8.3212296E1,4.020574E1,1.4960686E1,6.8250737E0,8.120825E1,1.3633428E1,1.0041099E2,7.2658916E0,2.472791E1,1.8677053E1,2.2823755E1,2.305354E1,1.684532E1,2.8376622E0,4.815329E1,7.417123E1,2.5333813E1,4.0116096E1,1.1921893E2,7.4176544E1,5.2758183E1,3.0454113E1,1.8711414E1,2.1494328E1,6.133656E0,8.827029E0,5.798411E0,1.0266627E0,4.5427814E1,3.578044E1,7.519892E0,6.1135354E0,4.757731E0,9.565326E1,5.669698E0,1.5961937E0,2.1892782E1,2.8351278E0,1.0614893E1,8.062161E0,4.4380403E0,1.8385715E1,6.0638766E0,1.6989664E1,1.2762287E1,4.0830326E0,1.3663847E0,1.4712774E0,2.9266638E1,1.8886652E1,3.0297323E1,4.38739E1,2.394738E1,1.3864329E0,3.3451252E1,6.6648417E0,7.1822205E1,4.739673E1,3.5874676E1,3.8301872E1,4.295597E1,9.802211E0,1.057101E1,1.9883102E1,8.861787E0,9.849628E0,2.7552836E0,1.8739042E1,2.6841097E0,3.4495463E0,2.6541004E0,6.172929E0,3.5482087E0,2.2502022E0,3.9975273E1,5.4525414E0,2.101534E0,3.3678905E1,1.0736033E0,6.446289E0,2.3502443E0,3.763291E0,1.6077396E0,3.1499915E0,2.0827854E1,1.0649272E0,1.2226495E0,1.6124784E0,1.0557362E0,9.559156E0,5.4849358E0,2.5772254E0,2.4343338E0,2.0037065E0,1.673539E0,4.3903375E0,7.3197255E0,9.669938E0],"tree_param":{"num_deleted":"0","num_feature":"20","num_nodes":"117","size_leaf_vector":"1"}},{"base_weights":[-4.0728956E-2,3.5023212E-1,-7.6346064E-1,5.045956E-1,-7.337008E-2,-3.9774308E-1,-9.201683E-1,7.734275E-1,2.5002718E-1,1.2860152E-1,-4.6472484E-1,-1.3172482E-1,-5.951617E-1,-1.0176381E0,-3.61743E-1,5.950467E-1,1.1645226E0,-2.60365E-1,3.9366758E-1,-2.6744593E-2,7.519664E-1,-7.107399E-1,1.262306E-1,-2.4099539E-1,7.822436E-1,-7.476395E-1,-4.5489322E-2,-5.908448E-1,-1.0453485E0,4.758465E-1,-7.36853E-1,1.7803188E-1,7.775729E-1,1.2303698E0,3.269309E-1,-4.1168448E-1,3.5736036E-1,5.81765E-2,5.3734213E-1,3.9312342E-1,-2.232195E-1,9.78872E-1,-6.1491065E-2,2.568509E-1,-7.886418E-1,5.5204134E-2,-7.520273E-2,6.96025E-2,-5.603846E-1,-8.052437E-3,7.798567E-2,-4.5435086E-1,-9.1209006E-1,4.126015E-1,-7.929133E-1,-8.3529925E-1,-1.258088E-1,-1.109426E0,-9.420631E-1,-9.2842944E-2,6.9343254E-2,-1.3153312E-1,-8.814277E-1,1.5862882E-2,-1.6675768E-2,2.9960146E-2,6.2117066E-2,3.6274936E-2,6.44946E-2,-3.9442144E-2,4.9791344E-2,3.6547089E-3,-2.7152494E-2,-1.1658546E-2,4.9260214E-2,1.3049291E-2,-1.6802076E-2,4.242293E-2,1.0062906E-2,-2.969687E-2,2.7950788E-2,-3.0020094E-2,1.0677826E-2,6.918554E-2,9.792068E-3,3.1356134E-2,-2.497281E-2,-3.620302E-2,5.8719374E-2,-5.126772E-2,-1.9703167E-2,-3.1792562E-2,1.9748962E-2,-7.600568E-3,4.43307E-2,2.5452262E-2,-4.0987995E-2,-3.922726E-2,-9.138567E-3,-4.99496E-2,-6.4777224E-3,4.2231653E-2,-3.9828595E-2,-1.4045106E-2,-4.4765454E-2,-4.5985702E-2,-5.6589115E-3,-2.3160202E-2,2.5647134E-2,-2.1827543E-2,-5.5942863E-2,-3.696404E-2,-5.3592067E-2,3.4387402E-2,-4.9679674E-2,-4.1606132E-2,2.4426898E-2,-2.3092802E-3,-4.818457E-2],"categories":[],"categories_nodes":[],"categories_segments":[],"categories_sizes":[],"default_left":[0,0,0,0,0,0,0,0,0,0,0,0,0,0,0,0,0,0,0,0,0,0,0,0,0,0,0,0,0,0,0,0,0,0,0,0,0,0,0,0,0,0,0,0,0,0,0,0,0,0,0,0,0,0,0,0,0,0,0,0,0,0,0,0,0,0,0,0,0,0,0,0,0,0,0,0,0,0,0,0,0,0,0,0,0,0,0,0,0,0,0,0,0,0,0,0,0,0,0,0,0,0,0,0,0,0,0,0,0,0,0,0,0,0,0,0,0,0,0],"id":14,"left_children":[1,3,5,7,9,11,13,15,17,19,21,23,25,27,29,31,33,35,37,39,41,43,45,47,49,51,53,55,57,59,61,63,65,67,69,71,73,75,77,79,81,83,85,87,89,-1,91,93,95,-1,-1,97,99,101,103,105,107,109,111,113,-1,115,117,-1,-1,-1,-1,-1,-1,-1,-1,-1,-1,-1,-1,-1,-1,-1,-1,-1,-1,-1,-1,-1,-1,-1,-1,-1,-1,-1,-1,-1,-1,-1,-1,-1,-1,-1,-1,-1,-1,-1,-1,-1,-1,-1,-1,-1,-1,-1,-1,-1,-1,-1,-1,-1,-1,-1,-1],"loss_changes":[2.3476195E2,3.529757E1,1.6348557E1,2.6862831E1,1.1512637E1,4.6084557E0,1.0703049E1,1.2688499E1,1.5097907E1,9.350891E0,7.2920103E0,4.113538E0,4.2356834E0,1.4239349E0,1.0335046E1,1.0043861E1,2.8538437E0,4.4023747E0,7.6817684E0,6.5304017E0,3.6144972E0,2.8504982E0,3.118502E0,3.5972552E0,3.5018811E0,1.5059605E0,4.479477E0,1.3528209E0,1.9058228E-2,5.5361705E0,1.8392277E0,3.0987334E0,6.944626E0,6.981201E-1,5.0133996E0,2.397933E0,3.749229E0,4.0133967E0,1.1531223E1,4.4679365E0,8.998161E0,4.5206833E0,1.8636143E0,